<?xml version="1.0"?>
<opencv_storage>
<my_svm type_id="opencv-ml-svm">
  <svm_type>C_SVC</svm_type>
  <kernel><type>RBF</type>
    <gamma>1.0000000000000001e-05</gamma></kernel>
  <C>1000.</C>
  <term_criteria><epsilon>2.2204460492503131e-16</epsilon>
    <iterations>100</iterations></term_criteria>
  <var_all>1120</var_all>
  <var_count>1120</var_count>
  <class_count>2</class_count>
  <class_labels type_id="opencv-matrix">
    <rows>1</rows>
    <cols>2</cols>
    <dt>i</dt>
    <data>
      0 1</data></class_labels>
  <sv_total>103</sv_total>
  <support_vectors>
    <_>
      0. 2.99910025e-04 4.71825749e-01 4.03725058e-01 4.99974994e-05
      1.49977495e-04 4.03339177e-01 0. 2.99910025e-04 4.71825749e-01
      4.03725058e-01 4.99974994e-05 1.49977495e-04 4.03339177e-01 0.
      2.99910025e-04 4.71825749e-01 4.03725058e-01 4.99974994e-05
      1.49977495e-04 4.03339177e-01 0. 2.99910025e-04 4.71825749e-01
      4.03725058e-01 4.99974994e-05 1.49977495e-04 4.03339177e-01
      7.49775063e-05 1.18114844e-01 3.82199198e-01 3.31183672e-01
      1.00968294e-01 1.00926697e-01 4.03170645e-01 7.49775063e-05
      1.18114844e-01 3.82199198e-01 3.31183672e-01 1.00968294e-01
      1.00926697e-01 4.03170645e-01 7.49775063e-05 1.18114844e-01
      3.82199198e-01 3.31183672e-01 1.00968294e-01 1.00926697e-01
      4.03170645e-01 7.49775063e-05 1.18114844e-01 3.82199198e-01
      3.31183672e-01 1.00968294e-01 1.00926697e-01 4.03170645e-01
      5.24954870e-02 1.70004085e-01 3.97207379e-01 3.59368950e-01
      1.11515857e-01 1.51719764e-01 4.03173506e-01 5.24954870e-02
      1.70004085e-01 3.97207379e-01 3.59368950e-01 1.11515857e-01
      1.51719764e-01 4.03173506e-01 5.24954870e-02 1.70004085e-01
      3.97207379e-01 3.59368950e-01 1.11515857e-01 1.51719764e-01
      4.03173506e-01 5.24954870e-02 1.70004085e-01 3.97207379e-01
      3.59368950e-01 1.11515857e-01 1.51719764e-01 4.03173506e-01
      9.56273004e-02 2.23544553e-01 4.13110733e-01 3.13380122e-01
      1.62494376e-01 1.73711970e-01 3.46259922e-01 9.56273004e-02
      2.23544553e-01 4.13110733e-01 3.13380122e-01 1.62494376e-01
      1.73711970e-01 3.46259922e-01 9.56273004e-02 2.23544553e-01
      4.13110733e-01 3.13380122e-01 1.62494376e-01 1.73711970e-01
      3.46259922e-01 9.56273004e-02 2.23544553e-01 4.13110733e-01
      3.13380122e-01 1.62494376e-01 1.73711970e-01 3.46259922e-01 0.
      1.49977495e-04 3.81310821e-01 2.80597478e-01 2.49993755e-05
      7.49943720e-05 2.80158222e-01 0. 1.49977495e-04 3.81310821e-01
      2.80597478e-01 2.49993755e-05 7.49943720e-05 2.80158222e-01 0.
      1.49977495e-04 3.81310821e-01 2.80597478e-01 2.49993755e-05
      7.49943720e-05 2.80158222e-01 0. 1.49977495e-04 3.81310821e-01
      2.80597478e-01 2.49993755e-05 7.49943720e-05 2.80158222e-01
      3.74943738e-05 9.54204947e-02 3.44440639e-01 2.68927455e-01
      7.01755732e-02 7.00962842e-02 2.80141622e-01 3.74943738e-05
      9.54204947e-02 3.44440639e-01 2.68927455e-01 7.01755732e-02
      7.00962842e-02 2.80141622e-01 3.74943738e-05 9.54204947e-02
      3.44440639e-01 2.68927455e-01 7.01755732e-02 7.00962842e-02
      2.80141622e-01 3.74943738e-05 9.54204947e-02 3.44440639e-01
      2.68927455e-01 7.01755732e-02 7.00962842e-02 2.80141622e-01
      4.24091108e-02 1.53162777e-01 3.63339394e-01 3.07380497e-01
      1.05314746e-01 1.20776050e-01 2.80182034e-01 4.24091108e-02
      1.53162777e-01 3.63339394e-01 3.07380497e-01 1.05314746e-01
      1.20776050e-01 2.80182034e-01 4.24091108e-02 1.53162777e-01
      3.63339394e-01 3.07380497e-01 1.05314746e-01 1.20776050e-01
      2.80182034e-01 4.24091108e-02 1.53162777e-01 3.63339394e-01
      3.07380497e-01 1.05314746e-01 1.20776050e-01 2.80182034e-01
      8.61540586e-02 2.04443008e-01 3.78629297e-01 2.95192063e-01
      1.60529301e-01 1.48281440e-01 2.58196086e-01 8.61540586e-02
      2.04443008e-01 3.78629297e-01 2.95192063e-01 1.60529301e-01
      1.48281440e-01 2.58196086e-01 8.61540586e-02 2.04443008e-01
      3.78629297e-01 2.95192063e-01 1.60529301e-01 1.48281440e-01
      2.58196086e-01 8.61540586e-02 2.04443008e-01 3.78629297e-01
      2.95192063e-01 1.60529301e-01 1.48281440e-01 2.58196086e-01 0.
      9.99900003e-05 3.08310896e-01 2.11274981e-01 1.66663885e-05
      4.99974994e-05 2.10889757e-01 0. 9.99900003e-05 3.08310896e-01
      2.11274981e-01 1.66663885e-05 4.99974994e-05 2.10889757e-01 0.
      9.99900003e-05 3.08310896e-01 2.11274981e-01 1.66663885e-05
      4.99974994e-05 2.10889757e-01 0. 9.99900003e-05 3.08310896e-01
      2.11274981e-01 1.66663885e-05 4.99974994e-05 2.10889757e-01
      2.49975001e-05 7.71468878e-02 2.95981377e-01 2.23213479e-01
      5.28391078e-02 5.27643003e-02 2.10904077e-01 2.49975001e-05
      7.71468878e-02 2.95981377e-01 2.23213479e-01 5.28391078e-02
      5.27643003e-02 2.10904077e-01 2.49975001e-05 7.71468878e-02
      2.95981377e-01 2.23213479e-01 5.28391041e-02 5.27643003e-02
      2.10904077e-01 2.49975001e-05 7.71468878e-02 2.95981377e-01
      2.23213479e-01 5.28391041e-02 5.27643003e-02 2.10904077e-01
      3.42875011e-02 1.31605148e-01 3.15354168e-01 2.61437505e-01
      9.45081338e-02 9.74323824e-02 2.10945651e-01 3.42874862e-02
      1.31605133e-01 3.15354168e-01 2.61437505e-01 9.45081115e-02
      9.74323601e-02 2.10945651e-01 3.42874266e-02 1.31605029e-01
      3.15354109e-01 2.61437416e-01 9.45080221e-02 9.74322781e-02
      2.10945651e-01 3.42871845e-02 1.31604612e-01 3.15353990e-01
      2.61437148e-01 9.45076495e-02 9.74319428e-02 2.10945651e-01
      7.40244314e-02 1.77430496e-01 3.29438359e-01 2.63803154e-01
      1.47582695e-01 1.26951098e-01 2.01793015e-01 7.40141943e-02
      1.77418590e-01 3.29434544e-01 2.63797879e-01 1.47569239e-01
      1.26941264e-01 2.01792523e-01 7.39744902e-02 1.77372426e-01
      3.29419643e-01 2.63777345e-01 1.47517070e-01 1.26903176e-01
      2.01790661e-01 7.38251731e-02 1.77198678e-01 3.29363614e-01
      2.63700098e-01 1.47320747e-01 1.26759842e-01 2.01783717e-01 0.
      7.49943720e-05 2.56392568e-01 1.68788180e-01 1.24998442e-05
      3.74985939e-05 1.68456808e-01 0. 7.49943720e-05 2.56392568e-01
      1.68788180e-01 1.24998442e-05 3.74985939e-05 1.68456808e-01 0.
      7.49943720e-05 2.56392568e-01 1.68788180e-01 1.24998442e-05
      3.74985939e-05 1.68456808e-01 0. 7.49943720e-05 2.56392568e-01
      1.68788180e-01 1.24998442e-05 3.74985939e-05 1.68456808e-01
      1.69209397e-05 5.79064414e-02 2.53359377e-01 1.85525119e-01
      3.80996838e-02 3.80421840e-02 1.68474838e-01 1.60439031e-05
      5.49084842e-02 2.52464831e-01 1.83606282e-01 3.61255221e-02
      3.60721946e-02 1.68472782e-01 1.53544988e-05 5.25519215e-02
      2.51782566e-01 1.82118848e-01 3.45737077e-02 3.45236622e-02
      1.68471187e-01 1.49098914e-05 5.10321371e-02 2.51352966e-01
      1.81169957e-01 3.35729197e-02 3.35249938e-02 1.68470159e-01
      1.21176336e-02 7.87691772e-02 2.61188775e-01 2.01374561e-01
      5.33636622e-02 5.44812120e-02 1.68489248e-01 1.17175002e-02
      7.77011365e-02 2.60813534e-01 2.00641096e-01 5.25038391e-02
      5.36890514e-02 1.68488428e-01 1.15137221e-02 7.71503374e-02
      2.60620445e-01 2.00262919e-01 5.20623699e-02 5.32811098e-02
      1.68488011e-01 1.14109116e-02 7.68706277e-02 2.60522515e-01
      2.00070888e-01 5.18386886e-02 5.30741028e-02 1.68487802e-01
      1.95689052e-02 9.01342481e-02 2.64817804e-01 2.01516166e-01
      6.51619658e-02 6.06169328e-02 1.64695501e-01 1.95124615e-02
      9.00250375e-02 2.64780402e-01 2.01460510e-01 6.50605932e-02
      6.05397075e-02 1.64701611e-01 1.94842257e-02 8.99703577e-02
      2.64761657e-01 2.01432630e-01 6.50098547e-02 6.05010428e-02
      1.64704695e-01 1.94701031e-02 8.99429917e-02 2.64752269e-01
      2.01418683e-01 6.49844706e-02 6.04816973e-02 1.64706230e-01 0.
      5.99964005e-05 2.18715087e-01 1.40351161e-01 9.99989970e-06
      2.99991007e-05 1.40063331e-01 0. 5.99964005e-05 2.18715087e-01
      1.40351161e-01 9.99989970e-06 2.99991007e-05 1.40063331e-01 0.
      5.99964005e-05 2.18715087e-01 1.40351161e-01 9.99989970e-06
      2.99991007e-05 1.40063331e-01 0. 5.99964005e-05 2.18715087e-01
      1.40351161e-01 9.99989970e-06 2.99991007e-05 1.40063331e-01
      1.15007324e-05 4.19740826e-02 2.18737513e-01 1.55397102e-01
      2.69168746e-02 2.68764906e-02 1.40078515e-01 1.15007033e-05
      4.19739783e-02 2.18737483e-01 1.55397028e-01 2.69168075e-02
      2.68764235e-02 1.40078515e-01 1.15006897e-05 4.19739261e-02
      2.18737468e-01 1.55396983e-01 2.69167740e-02 2.68763918e-02
      1.40078515e-01 1.15006824e-05 4.19739000e-02 2.18737453e-01
      1.55396968e-01 2.69167572e-02 2.68763751e-02 1.40078515e-01
      9.64537542e-03 6.66238591e-02 2.27947935e-01 1.73786625e-01
      4.54780050e-02 4.48860787e-02 1.40095845e-01 9.64537077e-03
      6.66238442e-02 2.27947935e-01 1.73786610e-01 4.54779938e-02
      4.48860675e-02 1.40095845e-01 9.64536797e-03 6.66238368e-02
      2.27947935e-01 1.73786610e-01 4.54779863e-02 4.48860638e-02
      1.40095845e-01 9.64536611e-03 6.66238293e-02 2.27947935e-01
      1.73786610e-01 4.54779826e-02 4.48860601e-02 1.40095845e-01
      1.68823898e-02 7.84988999e-02 2.31963590e-01 1.76642969e-01
      5.78352958e-02 5.21110632e-02 1.37678802e-01 1.68823898e-02
      7.84988999e-02 2.31963590e-01 1.76642969e-01 5.78352921e-02
      5.21110594e-02 1.37678802e-01 1.68823898e-02 7.84988925e-02
      2.31963590e-01 1.76642969e-01 5.78352921e-02 5.21110594e-02
      1.37678802e-01 1.68823898e-02 7.84988925e-02 2.31963590e-01
      1.76642969e-01 5.78352921e-02 5.21110594e-02 1.37678802e-01 0.
      4.99974994e-05 1.90412298e-01 1.20049328e-01 8.33326430e-06
      2.49993755e-05 1.19795941e-01 0. 4.99974994e-05 1.90412298e-01
      1.20049328e-01 8.33326430e-06 2.49993755e-05 1.19795941e-01 0.
      4.99974994e-05 1.90412298e-01 1.20049328e-01 8.33326430e-06
      2.49993755e-05 1.19795941e-01 0. 4.99974994e-05 1.90412298e-01
      1.20049328e-01 8.33326430e-06 2.49993755e-05 1.19795941e-01
      9.58399141e-06 3.65416817e-02 1.93407997e-01 1.36533305e-01
      2.30232850e-02 2.29872055e-02 1.19811855e-01 9.58399141e-06
      3.65416817e-02 1.93407997e-01 1.36533305e-01 2.30232850e-02
      2.29872055e-02 1.19811855e-01 9.58399141e-06 3.65416817e-02
      1.93407997e-01 1.36533305e-01 2.30232850e-02 2.29872055e-02
      1.19811855e-01 9.58399141e-06 3.65416817e-02 1.93407997e-01
      1.36533305e-01 2.30232850e-02 2.29872055e-02 1.19811855e-01
      8.39696173e-03 5.88098764e-02 2.02088222e-01 1.53456181e-01
      4.05397974e-02 3.89597006e-02 1.19827740e-01 8.39696173e-03
      5.88098764e-02 2.02088222e-01 1.53456181e-01 4.05397974e-02
      3.89597006e-02 1.19827740e-01 8.39696173e-03 5.88098764e-02
      2.02088222e-01 1.53456181e-01 4.05397974e-02 3.89597006e-02
      1.19827740e-01 8.39696173e-03 5.88098764e-02 2.02088222e-01
      1.53456181e-01 4.05397974e-02 3.89597006e-02 1.19827740e-01
      1.48761924e-02 6.94668889e-02 2.05795497e-01 1.56927109e-01
      5.19257374e-02 4.57496159e-02 1.18203357e-01 1.48761924e-02
      6.94668889e-02 2.05795497e-01 1.56927109e-01 5.19257374e-02
      4.57496159e-02 1.18203357e-01 1.48761924e-02 6.94668889e-02
      2.05795497e-01 1.56927109e-01 5.19257374e-02 4.57496159e-02
      1.18203357e-01 1.48761924e-02 6.94668889e-02 2.05795497e-01
      1.56927109e-01 5.19257374e-02 4.57496159e-02 1.18203357e-01 0.
      4.28553067e-05 1.68468654e-01 1.04850076e-01 7.14280623e-06
      2.14281117e-05 1.04624212e-01 0. 4.28553067e-05 1.68468654e-01
      1.04850076e-01 7.14280623e-06 2.14281117e-05 1.04624212e-01 0.
      4.28553067e-05 1.68468654e-01 1.04850076e-01 7.14280623e-06
      2.14281117e-05 1.04624212e-01 0. 4.28553067e-05 1.68468654e-01
      1.04850076e-01 7.14280623e-06 2.14281117e-05 1.04624212e-01
      8.21490903e-06 3.23301889e-02 1.73100665e-01 1.21676698e-01
      2.01083831e-02 2.00759023e-02 1.04639940e-01 8.21490903e-06
      3.23301889e-02 1.73100665e-01 1.21676698e-01 2.01083831e-02
      2.00759023e-02 1.04639940e-01 8.21490903e-06 3.23301889e-02
      1.73100665e-01 1.21676698e-01 2.01083831e-02 2.00759023e-02
      1.04639940e-01 8.21490903e-06 3.23301889e-02 1.73100665e-01
      1.21676698e-01 2.01083831e-02 2.00759023e-02 1.04639940e-01
      7.42912665e-03 5.25697134e-02 1.81225002e-01 1.37254044e-01
      3.65166813e-02 3.43974419e-02 1.04654483e-01 7.42912665e-03
      5.25697134e-02 1.81225002e-01 1.37254044e-01 3.65166813e-02
      3.43974419e-02 1.04654483e-01 7.42912665e-03 5.25697134e-02
      1.81225002e-01 1.37254044e-01 3.65166813e-02 3.43974419e-02
      1.04654483e-01 7.42912665e-03 5.25697134e-02 1.81225002e-01
      1.37254044e-01 3.65166813e-02 3.43974419e-02 1.04654483e-01
      1.32804820e-02 6.22114949e-02 1.84647426e-01 1.40986726e-01
      4.70175743e-02 4.07540612e-02 1.03525333e-01 1.32804820e-02
      6.22114949e-02 1.84647426e-01 1.40986726e-01 4.70175743e-02
      4.07540612e-02 1.03525333e-01 1.32804820e-02 6.22114949e-02
      1.84647426e-01 1.40986726e-01 4.70175743e-02 4.07540612e-02
      1.03525333e-01 1.32804820e-02 6.22114949e-02 1.84647426e-01
      1.40986726e-01 4.70175743e-02 4.07540612e-02 1.03525333e-01 0.
      3.74985939e-05 1.50996104e-01 9.30529386e-02 6.24996073e-06
      1.87496480e-05 9.28494185e-02 0. 3.74985939e-05 1.50996104e-01
      9.30529386e-02 6.24996073e-06 1.87496480e-05 9.28494185e-02 0.
      3.74985939e-05 1.50996104e-01 9.30529386e-02 6.24996073e-06
      1.87496480e-05 9.28494185e-02 0. 3.74985939e-05 1.50996104e-01
      9.30529386e-02 6.24996073e-06 1.87496480e-05 9.28494185e-02
      7.18808360e-06 2.89768949e-02 1.56531259e-01 1.09694295e-01
      1.78459305e-02 1.78164523e-02 9.28645954e-02 7.18808360e-06
      2.89768949e-02 1.56531259e-01 1.09694295e-01 1.78459305e-02
      1.78164523e-02 9.28645954e-02 7.18808360e-06 2.89768949e-02
      1.56531259e-01 1.09694295e-01 1.78459305e-02 1.78164523e-02
      9.28645954e-02 7.18808360e-06 2.89768949e-02 1.56531259e-01
      1.09694295e-01 1.78459305e-02 1.78164523e-02 9.28645954e-02
      6.65852940e-03 4.74924408e-02 1.64125293e-01 1.24076732e-01
      3.31919789e-02 3.07823550e-02 9.28779468e-02 6.65852940e-03
      4.74924408e-02 1.64125293e-01 1.24076732e-01 3.31919789e-02
      3.07823550e-02 9.28779468e-02 6.65852940e-03 4.74924408e-02
      1.64125293e-01 1.24076732e-01 3.31919789e-02 3.07823550e-02
      9.28779468e-02 6.65852940e-03 4.74924408e-02 1.64125293e-01
      1.24076732e-01 3.31919789e-02 3.07823550e-02 9.28779468e-02
      1.19858868e-02 5.62832765e-02 1.67293042e-01 1.27888098e-01
      4.29069065e-02 3.67322266e-02 9.20752510e-02 1.19858868e-02
      5.62832765e-02 1.67293042e-01 1.27888098e-01 4.29069065e-02
      3.67322266e-02 9.20752510e-02 1.19858868e-02 5.62832765e-02
      1.67293042e-01 1.27888098e-01 4.29069065e-02 3.67322266e-02
      9.20752510e-02 1.19858868e-02 5.62832765e-02 1.67293042e-01
      1.27888098e-01 4.29069065e-02 3.67322266e-02 9.20752510e-02 0.
      3.33322205e-05 1.36772156e-01 8.36344287e-02 5.55552469e-06
      1.66663885e-05 8.34493339e-02 0. 3.33322205e-05 1.36772156e-01
      8.36344287e-02 5.55552469e-06 1.66663885e-05 8.34493339e-02 0.
      3.33322205e-05 1.36772156e-01 8.36344287e-02 5.55552469e-06
      1.66663885e-05 8.34493339e-02 0. 3.33322205e-05 1.36772156e-01
      8.36344287e-02 5.55552469e-06 1.66663885e-05 8.34493339e-02
      6.38943402e-06 2.62471139e-02 1.42789200e-01 9.98362154e-02
      1.60396434e-02 1.60126891e-02 8.34638327e-02 6.38943402e-06
      2.62471139e-02 1.42789200e-01 9.98362154e-02 1.60396434e-02
      1.60126891e-02 8.34638327e-02 6.38943402e-06 2.62471139e-02
      1.42789200e-01 9.98362154e-02 1.60396434e-02 1.60126891e-02
      8.34638327e-02 6.38943402e-06 2.62471139e-02 1.42789200e-01
      9.98362154e-02 1.60396434e-02 1.60126891e-02 8.34638327e-02
      6.03122823e-03 4.32904102e-02 1.49895400e-01 1.13168038e-01
      3.04061007e-02 2.78497282e-02 8.34761485e-02 6.03122823e-03
      4.32904102e-02 1.49895400e-01 1.13168038e-01 3.04061007e-02
      2.78497282e-02 8.34761485e-02 6.03122823e-03 4.32904102e-02
      1.49895400e-01 1.13168038e-01 3.04061007e-02 2.78497282e-02
      8.34761485e-02 6.03122823e-03 4.32904102e-02 1.49895400e-01
      1.13168038e-01 3.04061007e-02 2.78497282e-02 8.34761485e-02
      1.09167900e-02 5.13614267e-02 1.52837932e-01 1.16960429e-01
      3.94285098e-02 3.34271938e-02 8.28977600e-02 1.09167900e-02
      5.13614267e-02 1.52837932e-01 1.16960429e-01 3.94285098e-02
      3.34271938e-02 8.28977600e-02 1.09167900e-02 5.13614267e-02
      1.52837932e-01 1.16960429e-01 3.94285098e-02 3.34271938e-02
      8.28977600e-02 1.09167900e-02 5.13614267e-02 1.52837932e-01
      1.16960429e-01 3.94285098e-02 3.34271938e-02 8.28977600e-02 0.
      2.99991007e-05 1.24976724e-01 7.59429038e-02 4.99997486e-06
      1.49997750e-05 7.57732540e-02 0. 2.99991007e-05 1.24976724e-01
      7.59429038e-02 4.99997486e-06 1.49997750e-05 7.57732540e-02 0.
      2.99991007e-05 1.24976724e-01 7.59429038e-02 4.99997486e-06
      1.49997750e-05 7.57732540e-02 0. 2.99991007e-05 1.24976724e-01
      7.59429038e-02 4.99997486e-06 1.49997750e-05 7.57732540e-02
      5.75050990e-06 2.39834320e-02 1.31225139e-01 9.15891975e-02
      1.45645579e-02 1.45397475e-02 7.57870376e-02 5.75050990e-06
      2.39834320e-02 1.31225139e-01 9.15891975e-02 1.45645579e-02
      1.45397475e-02 7.57870376e-02 5.75050990e-06 2.39834320e-02
      1.31225139e-01 9.15891975e-02 1.45645579e-02 1.45397475e-02
      7.57870376e-02 5.75050990e-06 2.39834320e-02 1.31225139e-01
      9.15891975e-02 1.45645579e-02 1.45397475e-02 7.57870376e-02
      5.51104173e-03 3.97601724e-02 1.37889251e-01 1.03998281e-01
      2.80419253e-02 2.54242476e-02 7.57984519e-02 5.51104173e-03
      3.97601724e-02 1.37889251e-01 1.03998281e-01 2.80419253e-02
      2.54242476e-02 7.57984519e-02 5.51104173e-03 3.97601724e-02
      1.37889251e-01 1.03998281e-01 2.80419253e-02 2.54242476e-02
      7.57984519e-02 5.51104173e-03 3.97601724e-02 1.37889251e-01
      1.03998281e-01 2.80419253e-02 2.54242476e-02 7.57984519e-02
      1.00201415e-02 4.72162329e-02 1.40633032e-01 1.07719339e-01
      3.64544280e-02 3.06643452e-02 7.53793195e-02 1.00201415e-02
      4.72162329e-02 1.40633032e-01 1.07719339e-01 3.64544280e-02
      3.06643452e-02 7.53793195e-02 1.00201415e-02 4.72162329e-02
      1.40633032e-01 1.07719339e-01 3.64544280e-02 3.06643452e-02
      7.53793195e-02 1.00201415e-02 4.72162329e-02 1.40633032e-01
      1.07719339e-01 3.64544280e-02 3.06643452e-02 7.53793195e-02</_>
    <_>
      4.49797575e-04 1.99960006e-04 9.99900003e-05 3.57903272e-01
      4.99974994e-05 3.99840035e-04 1.43403364e-02 4.49797575e-04
      1.99960006e-04 9.99900003e-05 3.57903272e-01 4.99974994e-05
      3.99840035e-04 1.43403364e-02 4.49797575e-04 1.99960006e-04
      9.99900003e-05 3.57903272e-01 4.99974994e-05 3.99840035e-04
      1.43403364e-02 4.49797575e-04 1.99960006e-04 9.99900003e-05
      3.57903272e-01 4.99974994e-05 3.99840035e-04 1.43403364e-02
      1.74073363e-03 3.37274483e-04 8.95542130e-02 3.57887089e-01
      8.95363167e-02 3.99131142e-03 1.32104963e-01 1.74073363e-03
      3.37274483e-04 8.95542130e-02 3.57887089e-01 8.95363167e-02
      3.99131142e-03 1.32104963e-01 1.74073363e-03 3.37274483e-04
      8.95542130e-02 3.57887089e-01 8.95363167e-02 3.99131142e-03
      1.32104963e-01 1.74073363e-03 3.37274483e-04 8.95542130e-02
      3.57887089e-01 8.95363167e-02 3.99131142e-03 1.32104963e-01
      2.76210438e-03 4.02318537e-02 1.59121633e-01 3.57821852e-01
      1.58451155e-01 5.78014962e-02 2.26731911e-01 2.76210438e-03
      4.02318537e-02 1.59121633e-01 3.57821852e-01 1.58451155e-01
      5.78014962e-02 2.26731911e-01 2.76210438e-03 4.02318537e-02
      1.59121633e-01 3.57821852e-01 1.58451155e-01 5.78014962e-02
      2.26731911e-01 2.76210438e-03 4.02318537e-02 1.59121633e-01
      3.57821852e-01 1.58451155e-01 5.78014962e-02 2.26731911e-01
      2.50561647e-02 9.01147723e-02 2.01003835e-01 3.56120050e-01
      1.65386215e-01 1.26429185e-01 1.76800907e-01 2.50561647e-02
      9.01147723e-02 2.01003835e-01 3.56120050e-01 1.65386215e-01
      1.26429185e-01 1.76800907e-01 2.50561647e-02 9.01147723e-02
      2.01003835e-01 3.56120050e-01 1.65386215e-01 1.26429185e-01
      1.76800907e-01 2.50561647e-02 9.01147723e-02 2.01003835e-01
      3.56120050e-01 1.65386215e-01 1.26429185e-01 1.76800907e-01
      2.24949385e-04 9.99900003e-05 4.99974994e-05 2.33450994e-01
      2.49993755e-05 1.99960006e-04 7.22233020e-03 2.24949385e-04
      9.99900003e-05 4.99974994e-05 2.33450994e-01 2.49993755e-05
      1.99960006e-04 7.22233020e-03 2.24949385e-04 9.99900003e-05
      4.99974994e-05 2.33450994e-01 2.49993755e-05 1.99960006e-04
      7.22233020e-03 2.24949385e-04 9.99900003e-05 4.99974994e-05
      2.33450994e-01 2.49993755e-05 1.99960006e-04 7.22233020e-03
      8.72678880e-04 1.68693601e-04 5.84143959e-02 2.33452246e-01
      5.84085584e-02 2.01025303e-03 1.25818208e-01 8.72678880e-04
      1.68693601e-04 5.84143959e-02 2.33452246e-01 5.84085584e-02
      2.01025303e-03 1.25818208e-01 8.72678880e-04 1.68693601e-04
      5.84143959e-02 2.33452246e-01 5.84085584e-02 2.01025303e-03
      1.25818208e-01 8.72678880e-04 1.68693601e-04 5.84143959e-02
      2.33452246e-01 5.84085584e-02 2.01025303e-03 1.25818208e-01
      1.38496293e-03 2.62644012e-02 1.03815943e-01 2.33447626e-01
      1.03873610e-01 5.62499315e-02 2.19553843e-01 1.38496293e-03
      2.62644012e-02 1.03815943e-01 2.33447626e-01 1.03873610e-01
      5.62499315e-02 2.19553843e-01 1.38496293e-03 2.62644012e-02
      1.03815943e-01 2.33447626e-01 1.03873610e-01 5.62499315e-02
      2.19553843e-01 1.38496293e-03 2.62644012e-02 1.03815943e-01
      2.33447626e-01 1.03873610e-01 5.62499315e-02 2.19553843e-01
      1.61169004e-02 5.88778704e-02 1.31329715e-01 2.33067706e-01
      1.19406000e-01 1.24479078e-01 1.88223928e-01 1.61169004e-02
      5.88778704e-02 1.31329715e-01 2.33067706e-01 1.19406000e-01
      1.24479078e-01 1.88223928e-01 1.61169004e-02 5.88778704e-02
      1.31329715e-01 2.33067706e-01 1.19406000e-01 1.24479078e-01
      1.88223928e-01 1.61169004e-02 5.88778704e-02 1.31329715e-01
      2.33067706e-01 1.19406000e-01 1.24479078e-01 1.88223928e-01
      1.49977495e-04 6.66622218e-05 3.33322205e-05 1.71268463e-01
      1.66663885e-05 1.33315552e-04 4.82655317e-03 1.49977495e-04
      6.66622218e-05 3.33322205e-05 1.71268463e-01 1.66663885e-05
      1.33315552e-04 4.82655317e-03 1.49977495e-04 6.66622218e-05
      3.33322205e-05 1.71268463e-01 1.66663885e-05 1.33315552e-04
      4.82655317e-03 1.49977495e-04 6.66622218e-05 3.33322205e-05
      1.71268463e-01 1.66663885e-05 1.33315552e-04 4.82655317e-03
      5.82301058e-04 1.12474932e-04 4.28556949e-02 1.71272397e-01
      4.28528376e-02 1.34343456e-03 1.17497951e-01 5.82301058e-04
      1.12474932e-04 4.28556949e-02 1.71272397e-01 4.28528376e-02
      1.34343456e-03 1.17497951e-01 5.82301058e-04 1.12474932e-04
      4.28556949e-02 1.71272397e-01 4.28528376e-02 1.34343456e-03
      1.17497951e-01 5.82301058e-04 1.12474932e-04 4.28556912e-02
      1.71272397e-01 4.28528376e-02 1.34343456e-03 1.17497943e-01
      9.24179854e-04 1.92777477e-02 7.61703327e-02 1.71278641e-01
      7.63409287e-02 5.36460653e-02 2.06073746e-01 9.24179738e-04
      1.92777403e-02 7.61703178e-02 1.71278641e-01 7.63409138e-02
      5.36460392e-02 2.06073701e-01 9.24179156e-04 1.92777067e-02
      7.61702657e-02 1.71278641e-01 7.63408616e-02 5.36459498e-02
      2.06073567e-01 9.24177002e-04 1.92775708e-02 7.61700496e-02
      1.71278641e-01 7.63406456e-02 5.36455773e-02 2.06072986e-01
      1.17813079e-02 4.32238430e-02 9.64031667e-02 1.71184108e-01
      9.59022865e-02 1.19192287e-01 1.87936381e-01 1.17787896e-02
      4.32181694e-02 9.63978693e-02 1.71184078e-01 9.58945602e-02
      1.19176731e-01 1.87929079e-01 1.17690274e-02 4.31961678e-02
      9.63773280e-02 1.71183974e-01 9.58645865e-02 1.19116418e-01
      1.87900767e-01 1.17323343e-02 4.31134067e-02 9.62999985e-02
      1.71183571e-01 9.57518592e-02 1.18889540e-01 1.87794209e-01
      1.12487345e-04 4.99974994e-05 2.49993755e-05 1.34932190e-01
      1.24998442e-05 9.99900003e-05 3.62430071e-03 1.12487345e-04
      4.99974994e-05 2.49993755e-05 1.34932190e-01 1.24998442e-05
      9.99900003e-05 3.62430071e-03 1.12487345e-04 4.99974994e-05
      2.49993755e-05 1.34932190e-01 1.24998442e-05 9.99900003e-05
      3.62430071e-03 1.12487345e-04 4.99974994e-05 2.49993755e-05
      1.34932190e-01 1.24998442e-05 9.99900003e-05 3.62430071e-03
      4.05285915e-04 8.10107522e-05 3.04747075e-02 1.34935856e-01
      3.04720476e-02 9.20193386e-04 9.78682637e-02 3.90106172e-04
      7.94031221e-05 2.88963746e-02 1.34935543e-01 2.88932435e-02
      8.77672224e-04 9.29461122e-02 3.78174067e-04 7.81394338e-05
      2.76557095e-02 1.34935290e-01 2.76522096e-02 8.44248221e-04
      8.90777409e-02 3.70478898e-04 7.73244610e-05 2.68555842e-02
      1.34935141e-01 2.68518459e-02 8.22692586e-04 8.65833387e-02
      5.25985088e-04 6.49621198e-03 4.28435802e-02 1.34936675e-01
      4.28944081e-02 2.17526220e-02 1.36445060e-01 5.20617119e-04
      6.28390769e-03 4.22914028e-02 1.34936467e-01 4.23392504e-02
      2.10547298e-02 1.34721458e-01 5.17843757e-04 6.17578393e-03
      4.20060791e-02 1.34936377e-01 4.20524217e-02 2.06992496e-02
      1.33830860e-01 5.16434084e-04 6.12123264e-03 4.18610424e-02
      1.34936318e-01 4.19066250e-02 2.05198862e-02 1.33378148e-01
      1.67141750e-03 1.08835660e-02 4.80397679e-02 1.34879276e-01
      4.54281718e-02 3.60726789e-02 1.30532086e-01 1.66523259e-03
      1.08527252e-02 4.79872897e-02 1.34879336e-01 4.53767665e-02
      3.59716602e-02 1.30427897e-01 1.66214257e-03 1.08372960e-02
      4.79610041e-02 1.34879351e-01 4.53510284e-02 3.59211192e-02
      1.30375683e-01 1.66059821e-03 1.08295791e-02 4.79478501e-02
      1.34879366e-01 4.53381538e-02 3.58958431e-02 1.30349547e-01
      8.99919032e-05 3.99983983e-05 1.99995993e-05 1.11229926e-01
      9.99989970e-06 7.99936024e-05 2.90154829e-03 8.99919032e-05
      3.99983983e-05 1.99995993e-05 1.11229926e-01 9.99989970e-06
      7.99936024e-05 2.90154829e-03 8.99919032e-05 3.99983983e-05
      1.99995993e-05 1.11229926e-01 9.99989970e-06 7.99936024e-05
      2.90154829e-03 8.99919032e-05 3.99983983e-05 1.99995993e-05
      1.11229926e-01 9.99989970e-06 7.99936024e-05 2.90154829e-03
      2.89060816e-04 6.10781717e-05 2.13457178e-02 1.11232758e-01
      2.13426538e-02 6.37894263e-04 7.65599236e-02 2.89060321e-04
      6.10781135e-05 2.13456657e-02 1.11232758e-01 2.13426016e-02
      6.37892925e-04 7.65597373e-02 2.89060088e-04 6.10780917e-05
      2.13456396e-02 1.11232758e-01 2.13425737e-02 6.37892226e-04
      7.65596479e-02 2.89059972e-04 6.10780771e-05 2.13456247e-02
      1.11232758e-01 2.13425606e-02 6.37891877e-04 7.65596032e-02
      4.12120717e-04 5.00080129e-03 3.43876667e-02 1.11235164e-01
      3.44394855e-02 1.88736301e-02 1.21923141e-01 4.12120629e-04
      5.00079850e-03 3.43876593e-02 1.11235164e-01 3.44394781e-02
      1.88736189e-02 1.21923119e-01 4.12120600e-04 5.00079710e-03
      3.43876556e-02 1.11235164e-01 3.44394743e-02 1.88736133e-02
      1.21923104e-01 4.12120571e-04 5.00079617e-03 3.43876556e-02
      1.11235164e-01 3.44394706e-02 1.88736115e-02 1.21923096e-01
      1.35756668e-03 8.92217457e-03 3.95185165e-02 1.11202873e-01
      3.81206758e-02 3.33508067e-02 1.21727698e-01 1.35756657e-03
      8.92217457e-03 3.95185128e-02 1.11202873e-01 3.81206758e-02
      3.33508030e-02 1.21727698e-01 1.35756657e-03 8.92217364e-03
      3.95185128e-02 1.11202873e-01 3.81206758e-02 3.33508030e-02
      1.21727698e-01 1.35756657e-03 8.92217364e-03 3.95185128e-02
      1.11202873e-01 3.81206758e-02 3.33508030e-02 1.21727698e-01
      7.49943720e-05 3.33322205e-05 1.66663885e-05 9.45795178e-02
      8.33326430e-06 6.66622218e-05 2.41912878e-03 7.49943720e-05
      3.33322205e-05 1.66663885e-05 9.45795178e-02 8.33326430e-06
      6.66622218e-05 2.41912878e-03 7.49943720e-05 3.33322205e-05
      1.66663885e-05 9.45795178e-02 8.33326430e-06 6.66622218e-05
      2.41912878e-03 7.49943720e-05 3.33322205e-05 1.66663885e-05
      9.45795178e-02 8.33326430e-06 6.66622218e-05 2.41912878e-03
      2.40924433e-04 5.08994672e-05 1.81503575e-02 9.45822373e-02
      1.81478951e-02 5.31831582e-04 7.02478811e-02 2.40924433e-04
      5.08994672e-05 1.81503575e-02 9.45822373e-02 1.81478951e-02
      5.31831582e-04 7.02478811e-02 2.40924433e-04 5.08994672e-05
      1.81503575e-02 9.45822373e-02 1.81478951e-02 5.31831582e-04
      7.02478811e-02 2.40924433e-04 5.08994672e-05 1.81503575e-02
      9.45822373e-02 1.81478951e-02 5.31831582e-04 7.02478811e-02
      3.43496853e-04 4.25227406e-03 2.92405244e-02 9.45850387e-02
      2.92930566e-02 1.74998641e-02 1.11971833e-01 3.43496853e-04
      4.25227406e-03 2.92405244e-02 9.45850387e-02 2.92930566e-02
      1.74998641e-02 1.11971833e-01 3.43496853e-04 4.25227406e-03
      2.92405244e-02 9.45850387e-02 2.92930566e-02 1.74998641e-02
      1.11971833e-01 3.43496853e-04 4.25227406e-03 2.92405244e-02
      9.45850387e-02 2.92930566e-02 1.74998641e-02 1.11971833e-01
      1.14877138e-03 7.58735510e-03 3.36051621e-02 9.45658758e-02
      3.29642519e-02 3.09616793e-02 1.13520533e-01 1.14877138e-03
      7.58735510e-03 3.36051621e-02 9.45658758e-02 3.29642519e-02
      3.09616793e-02 1.13520533e-01 1.14877138e-03 7.58735510e-03
      3.36051621e-02 9.45658758e-02 3.29642519e-02 3.09616793e-02
      1.13520533e-01 1.14877138e-03 7.58735510e-03 3.36051621e-02
      9.45658758e-02 3.29642519e-02 3.09616793e-02 1.13520533e-01
      6.42815794e-05 2.85706119e-05 1.42855106e-05 8.22515190e-02
      7.14280623e-06 5.71395904e-05 2.07425701e-03 6.42815794e-05
      2.85706119e-05 1.42855106e-05 8.22515190e-02 7.14280623e-06
      5.71395904e-05 2.07425701e-03 6.42815794e-05 2.85706119e-05
      1.42855106e-05 8.22515190e-02 7.14280623e-06 5.71395904e-05
      2.07425701e-03 6.42815794e-05 2.85706119e-05 1.42855106e-05
      8.22515190e-02 7.14280623e-06 5.71395904e-05 2.07425701e-03
      2.06531928e-04 4.36287737e-05 1.57845784e-02 8.22540820e-02
      1.57825258e-02 4.56012087e-04 6.46983534e-02 2.06531928e-04
      4.36287737e-05 1.57845784e-02 8.22540820e-02 1.57825258e-02
      4.56012087e-04 6.46983534e-02 2.06531928e-04 4.36287737e-05
      1.57845784e-02 8.22540820e-02 1.57825258e-02 4.56012087e-04
      6.46983534e-02 2.06531928e-04 4.36287737e-05 1.57845784e-02
      8.22540820e-02 1.57825258e-02 4.56012087e-04 6.46983534e-02
      2.94464495e-04 3.69806495e-03 2.54294649e-02 8.22569951e-02
      2.54804324e-02 1.62539780e-02 1.03188187e-01 2.94464495e-04
      3.69806495e-03 2.54294649e-02 8.22569951e-02 2.54804324e-02
      1.62539780e-02 1.03188187e-01 2.94464495e-04 3.69806495e-03
      2.54294649e-02 8.22569951e-02 2.54804324e-02 1.62539780e-02
      1.03188187e-01 2.94464495e-04 3.69806495e-03 2.54294649e-02
      8.22569951e-02 2.54804324e-02 1.62539780e-02 1.03188187e-01
      9.95623996e-04 6.59887865e-03 2.92263329e-02 8.22454914e-02
      2.90745236e-02 2.87817568e-02 1.05990015e-01 9.95623996e-04
      6.59887865e-03 2.92263329e-02 8.22454914e-02 2.90745236e-02
      2.87817568e-02 1.05990015e-01 9.95623996e-04 6.59887865e-03
      2.92263329e-02 8.22454914e-02 2.90745236e-02 2.87817568e-02
      1.05990015e-01 9.95623996e-04 6.59887865e-03 2.92263329e-02
      8.22454914e-02 2.90745236e-02 2.87817568e-02 1.05990015e-01
      5.62468376e-05 2.49993755e-05 1.24998442e-05 7.27601349e-02
      6.24996073e-06 4.99974994e-05 1.81544619e-03 5.62468376e-05
      2.49993755e-05 1.24998442e-05 7.27601349e-02 6.24996073e-06
      4.99974994e-05 1.81544619e-03 5.62468376e-05 2.49993755e-05
      1.24998442e-05 7.27601349e-02 6.24996073e-06 4.99974994e-05
      1.81544619e-03 5.62468376e-05 2.49993755e-05 1.24998442e-05
      7.27601349e-02 6.24996073e-06 4.99974994e-05 1.81544619e-03
      1.80732008e-04 3.81756108e-05 1.39631461e-02 7.27625340e-02
      1.39613887e-02 3.99113254e-04 5.98487668e-02 1.80732008e-04
      3.81756108e-05 1.39631461e-02 7.27625340e-02 1.39613887e-02
      3.99113254e-04 5.98487668e-02 1.80732008e-04 3.81756108e-05
      1.39631461e-02 7.27625340e-02 1.39613887e-02 3.99113254e-04
      5.98487668e-02 1.80732008e-04 3.81756108e-05 1.39631461e-02
      7.27625340e-02 1.39613887e-02 3.99113254e-04 5.98487668e-02
      2.57681793e-04 3.27137089e-03 2.24952456e-02 7.27654248e-02
      2.25438457e-02 1.51395127e-02 9.54944938e-02 2.57681793e-04
      3.27137089e-03 2.24952456e-02 7.27654248e-02 2.25438457e-02
      1.51395127e-02 9.54944938e-02 2.57681793e-04 3.27137089e-03
      2.24952456e-02 7.27654248e-02 2.25438457e-02 1.51395127e-02
      9.54944938e-02 2.57681793e-04 3.27137089e-03 2.24952456e-02
      7.27654248e-02 2.25438457e-02 1.51395127e-02 9.54944938e-02
      8.78497609e-04 5.83774364e-03 2.58547328e-02 7.27586746e-02
      2.60269940e-02 2.68247295e-02 9.91901308e-02 8.78497609e-04
      5.83774364e-03 2.58547328e-02 7.27586746e-02 2.60269940e-02
      2.68247295e-02 9.91901308e-02 8.78497609e-04 5.83774364e-03
      2.58547328e-02 7.27586746e-02 2.60269940e-02 2.68247295e-02
      9.91901308e-02 8.78497609e-04 5.83774364e-03 2.58547328e-02
      7.27586746e-02 2.60269940e-02 2.68247295e-02 9.91901308e-02
      4.99974994e-05 2.22217277e-05 1.11109875e-05 6.52291104e-02
      5.55552469e-06 4.44424695e-05 1.61405583e-03 4.99974994e-05
      2.22217277e-05 1.11109875e-05 6.52291104e-02 5.55552469e-06
      4.44424695e-05 1.61405583e-03 4.99974994e-05 2.22217277e-05
      1.11109875e-05 6.52291104e-02 5.55552469e-06 4.44424695e-05
      1.61405583e-03 4.99974994e-05 2.22217277e-05 1.11109875e-05
      6.52291104e-02 5.55552469e-06 4.44424695e-05 1.61405583e-03
      1.60662137e-04 3.39341750e-05 1.25179095e-02 6.52313530e-02
      1.25163756e-02 3.54838354e-04 5.56082688e-02 1.60662137e-04
      3.39341750e-05 1.25179095e-02 6.52313530e-02 1.25163756e-02
      3.54838354e-04 5.56082688e-02 1.60662137e-04 3.39341750e-05
      1.25179095e-02 6.52313530e-02 1.25163756e-02 3.54838354e-04
      5.56082688e-02 1.60662137e-04 3.39341750e-05 1.25179095e-02
      6.52313530e-02 1.25163756e-02 3.54838354e-04 5.56082688e-02
      2.29067999e-04 2.93280161e-03 2.01670211e-02 6.52341545e-02
      2.02130470e-02 1.41471848e-02 8.87567773e-02 2.29067999e-04
      2.93280161e-03 2.01670211e-02 6.52341545e-02 2.02130470e-02
      1.41471848e-02 8.87567773e-02 2.29067999e-04 2.93280161e-03
      2.01670211e-02 6.52341545e-02 2.02130470e-02 1.41471848e-02
      8.87567773e-02 2.29067999e-04 2.93280161e-03 2.01670211e-02
      6.52341545e-02 2.02130470e-02 1.41471848e-02 8.87567773e-02
      7.86022982e-04 5.23375068e-03 2.31793150e-02 6.52304962e-02
      2.35701166e-02 2.50780601e-02 9.30849537e-02 7.86022982e-04
      5.23375068e-03 2.31793150e-02 6.52304962e-02 2.35701166e-02
      2.50780601e-02 9.30849537e-02 7.86022982e-04 5.23375068e-03
      2.31793150e-02 6.52304962e-02 2.35701166e-02 2.50780601e-02
      9.30849537e-02 7.86022982e-04 5.23375068e-03 2.31793150e-02
      6.52304962e-02 2.35701166e-02 2.50780601e-02 9.30849537e-02
      4.49979743e-05 1.99995993e-05 9.99989970e-06 5.91088161e-02
      4.99997486e-06 3.99983983e-05 1.45288499e-03 4.49979743e-05
      1.99995993e-05 9.99989970e-06 5.91088161e-02 4.99997486e-06
      3.99983983e-05 1.45288499e-03 4.49979743e-05 1.99995993e-05
      9.99989970e-06 5.91088161e-02 4.99997486e-06 3.99983983e-05
      1.45288499e-03 4.49979743e-05 1.99995993e-05 9.99989970e-06
      5.91088161e-02 4.99997486e-06 3.99983983e-05 1.45288499e-03
      1.44604172e-04 3.05409740e-05 1.13433972e-02 5.91109134e-02
      1.13420365e-02 3.19405692e-04 5.18869050e-02 1.44604172e-04
      3.05409740e-05 1.13433972e-02 5.91109134e-02 1.13420365e-02
      3.19405692e-04 5.18869050e-02 1.44604172e-04 3.05409740e-05
      1.13433972e-02 5.91109134e-02 1.13420365e-02 3.19405692e-04
      5.18869050e-02 1.44604172e-04 3.05409740e-05 1.13433972e-02
      5.91109134e-02 1.13420365e-02 3.19405692e-04 5.18869050e-02
      2.06173820e-04 2.65765027e-03 1.82749033e-02 5.91136180e-02
      1.83183923e-02 1.32636558e-02 8.28375667e-02 2.06173820e-04
      2.65765027e-03 1.82749033e-02 5.91136180e-02 1.83183923e-02
      1.32636558e-02 8.28375667e-02 2.06173820e-04 2.65765027e-03
      1.82749033e-02 5.91136180e-02 1.83183923e-02 1.32636558e-02
      8.28375667e-02 2.06173820e-04 2.65765027e-03 1.82749033e-02
      5.91136180e-02 1.83183923e-02 1.32636558e-02 8.28375667e-02
      7.11159548e-04 4.74285847e-03 2.10049432e-02 5.91120385e-02
      2.15446837e-02 2.35203318e-02 8.76081139e-02 7.11159548e-04
      4.74285847e-03 2.10049432e-02 5.91120385e-02 2.15446837e-02
      2.35203318e-02 8.76081139e-02 7.11159548e-04 4.74285847e-03
      2.10049432e-02 5.91120385e-02 2.15446837e-02 2.35203318e-02
      8.76081139e-02 7.11159548e-04 4.74285847e-03 2.10049432e-02
      5.91120385e-02 2.15446837e-02 2.35203318e-02 8.76081139e-02</_>
    <_>
      4.99997824e-01 4.99974994e-05 1.29831152e-03 4.01613057e-01
      4.99999970e-01 4.84065145e-01 7.39477202e-03 4.99997824e-01
      4.99974994e-05 1.29831152e-03 4.01613057e-01 4.99999970e-01
      4.84065145e-01 7.39477202e-03 4.99997824e-01 4.99974994e-05
      1.29831152e-03 4.01613057e-01 4.99999970e-01 4.84065145e-01
      7.39477202e-03 4.99997824e-01 4.99974994e-05 1.29831152e-03
      4.01613057e-01 4.99999970e-01 4.84065145e-01 7.39477202e-03
      4.99760538e-01 1.25024423e-01 1.01182580e-01 3.25545818e-01
      2.78580427e-01 3.65242809e-01 1.24832340e-01 4.99760538e-01
      1.25024423e-01 1.01182580e-01 3.25545818e-01 2.78580427e-01
      3.65242809e-01 1.24832340e-01 4.99760538e-01 1.25024423e-01
      1.01182580e-01 3.25545818e-01 2.78580427e-01 3.65242809e-01
      1.24832340e-01 4.99760538e-01 1.25024423e-01 1.01182580e-01
      3.25545818e-01 2.78580427e-01 3.65242809e-01 1.24832340e-01
      3.88487935e-01 1.77510247e-01 1.00525789e-01 3.02066475e-01
      3.02162141e-01 3.37319285e-01 1.65631577e-01 3.88487935e-01
      1.77510247e-01 1.00525789e-01 3.02066475e-01 3.02162141e-01
      3.37319285e-01 1.65631577e-01 3.88487935e-01 1.77510247e-01
      1.00525789e-01 3.02066475e-01 3.02162141e-01 3.37319285e-01
      1.65631577e-01 3.88487935e-01 1.77510247e-01 1.00525789e-01
      3.02066475e-01 3.02162141e-01 3.37319285e-01 1.65631577e-01
      2.99433172e-01 1.31099522e-01 1.19985595e-01 2.32931793e-01
      3.32755238e-01 3.50511819e-01 1.30813524e-01 2.99433172e-01
      1.31099522e-01 1.19985595e-01 2.32931793e-01 3.32755238e-01
      3.50511819e-01 1.30813524e-01 2.99433172e-01 1.31099522e-01
      1.19985595e-01 2.32931793e-01 3.32755238e-01 3.50511819e-01
      1.30813524e-01 2.99433172e-01 1.31099522e-01 1.19985595e-01
      2.32931793e-01 3.32755238e-01 3.50511819e-01 1.30813524e-01
      4.98958707e-01 2.49993755e-05 6.49577705e-04 2.78203994e-01
      4.99902278e-01 4.10739601e-01 3.71115888e-03 4.98958707e-01
      2.49993755e-05 6.49577705e-04 2.78203994e-01 4.99902278e-01
      4.10739601e-01 3.71115888e-03 4.98958707e-01 2.49993755e-05
      6.49577705e-04 2.78203994e-01 4.99902278e-01 4.10739601e-01
      3.71115888e-03 4.98958707e-01 2.49993755e-05 6.49577705e-04
      2.78203994e-01 4.99902278e-01 4.10739601e-01 3.71115888e-03
      4.98840511e-01 1.24752536e-01 7.00226203e-02 2.64014393e-01
      3.27722549e-01 3.29623371e-01 1.04875982e-01 4.98840511e-01
      1.24752536e-01 7.00226203e-02 2.64014393e-01 3.27722549e-01
      3.29623371e-01 1.04875982e-01 4.98840511e-01 1.24752536e-01
      7.00226203e-02 2.64014393e-01 3.27722549e-01 3.29623371e-01
      1.04875982e-01 4.98840511e-01 1.24752536e-01 7.00226203e-02
      2.64014393e-01 3.27722549e-01 3.29623371e-01 1.04875982e-01
      3.87995511e-01 1.90934047e-01 8.67473558e-02 2.69230306e-01
      3.46283495e-01 3.27533543e-01 1.48283571e-01 3.87995511e-01
      1.90934047e-01 8.67473558e-02 2.69230306e-01 3.46283495e-01
      3.27533543e-01 1.48283571e-01 3.87995511e-01 1.90934047e-01
      8.67473558e-02 2.69230306e-01 3.46283495e-01 3.27533543e-01
      1.48283571e-01 3.87995511e-01 1.90934047e-01 8.67473558e-02
      2.69230306e-01 3.46283495e-01 3.27533543e-01 1.48283571e-01
      3.22236776e-01 1.38659239e-01 1.16882958e-01 2.19413415e-01
      3.70119959e-01 3.48479033e-01 1.32130921e-01 3.22236776e-01
      1.38659239e-01 1.16882958e-01 2.19413415e-01 3.70119959e-01
      3.48479033e-01 1.32130921e-01 3.22236776e-01 1.38659239e-01
      1.16882958e-01 2.19413415e-01 3.70119959e-01 3.48479033e-01
      1.32130921e-01 3.22236776e-01 1.38659239e-01 1.16882958e-01
      2.19413415e-01 3.70119959e-01 3.48479033e-01 1.32130921e-01
      4.91845995e-01 1.66663885e-05 4.33145615e-04 2.09178954e-01
      4.98316169e-01 3.41475666e-01 2.47717649e-03 4.91845995e-01
      1.66663885e-05 4.33145615e-04 2.09178954e-01 4.98316169e-01
      3.41475666e-01 2.47717649e-03 4.91845995e-01 1.66663885e-05
      4.33145615e-04 2.09178954e-01 4.98316169e-01 3.41475666e-01
      2.47717649e-03 4.91845995e-01 1.66663885e-05 4.33145615e-04
      2.09178954e-01 4.98316169e-01 3.41475666e-01 2.47717649e-03
      4.91769433e-01 1.22971736e-01 5.26396967e-02 2.29475647e-01
      3.61459434e-01 2.95469582e-01 8.70053694e-02 4.91769433e-01
      1.22971736e-01 5.26396967e-02 2.29475647e-01 3.61459434e-01
      2.95469582e-01 8.70053694e-02 4.91769433e-01 1.22971728e-01
      5.26396967e-02 2.29475647e-01 3.61459434e-01 2.95469582e-01
      8.70053694e-02 4.91769433e-01 1.22971728e-01 5.26396967e-02
      2.29475647e-01 3.61459434e-01 2.95469582e-01 8.70053694e-02
      3.83329570e-01 1.96089119e-01 7.94079527e-02 2.53780603e-01
      3.76533091e-01 3.12432349e-01 1.32591575e-01 3.83329600e-01
      1.96089089e-01 7.94079304e-02 2.53780574e-01 3.76533091e-01
      3.12432319e-01 1.32591546e-01 3.83329630e-01 1.96088955e-01
      7.94078410e-02 2.53780484e-01 3.76533031e-01 3.12432259e-01
      1.32591441e-01 3.83329809e-01 1.96088403e-01 7.94074833e-02
      2.53780186e-01 3.76532853e-01 3.12432021e-01 1.32591009e-01
      3.32030147e-01 1.41717151e-01 1.17277965e-01 2.16160044e-01
      3.95682067e-01 3.40015352e-01 1.32386476e-01 3.32032859e-01
      1.41713560e-01 1.17265619e-01 2.16156140e-01 3.95676374e-01
      3.40007395e-01 1.32377863e-01 3.32043409e-01 1.41699597e-01
      1.17217764e-01 2.16141015e-01 3.95654351e-01 3.39976519e-01
      1.32344469e-01 3.32083344e-01 1.41647115e-01 1.17037743e-01
      2.16084152e-01 3.95571470e-01 3.39860350e-01 1.32218897e-01
      4.77182388e-01 1.24998442e-05 3.24894412e-04 1.66986480e-01
      4.93010163e-01 2.88741380e-01 1.85903534e-03 4.77182388e-01
      1.24998442e-05 3.24894412e-04 1.66986480e-01 4.93010163e-01
      2.88741380e-01 1.85903534e-03 4.77182388e-01 1.24998442e-05
      3.24894412e-04 1.66986480e-01 4.93010163e-01 2.88741380e-01
      1.85903534e-03 4.77182388e-01 1.24998442e-05 3.24894412e-04
      1.66986480e-01 4.93010163e-01 2.88741380e-01 1.85903534e-03
      4.77128297e-01 1.07676573e-01 3.79522964e-02 1.99987218e-01
      3.82084966e-01 2.64477611e-01 6.65023476e-02 4.77128357e-01
      1.02096044e-01 3.60006951e-02 1.96275502e-01 3.82376373e-01
      2.62264073e-01 6.31387532e-02 4.77128446e-01 9.77094173e-02
      3.44666466e-02 1.93397641e-01 3.82713854e-01 2.60593086e-01
      6.04950190e-02 4.77128536e-01 9.48804021e-02 3.34773250e-02
      1.91561431e-01 3.82985443e-01 2.59549737e-01 5.87901585e-02
      3.97088706e-01 1.39766455e-01 4.45003547e-02 2.09128037e-01
      3.83805990e-01 2.71965414e-01 8.11221451e-02 3.98036122e-01
      1.38003290e-01 4.37073298e-02 2.08067745e-01 3.83587807e-01
      2.71193743e-01 7.99808949e-02 3.98529977e-01 1.37092546e-01
      4.33019064e-02 2.07521871e-01 3.83479267e-01 2.70797938e-01
      7.93940350e-02 3.98782134e-01 1.36629671e-01 4.30969484e-02
      2.07244903e-01 3.83425206e-01 2.70597517e-01 7.90964514e-02
      3.69112253e-01 1.17157266e-01 5.22277877e-02 1.91269383e-01
      3.86333913e-01 2.79256225e-01 7.94583708e-02 3.69221807e-01
      1.17096357e-01 5.21390140e-02 1.91231236e-01 3.86304051e-01
      2.79174656e-01 7.93762133e-02 3.69276732e-01 1.17065810e-01
      5.20945899e-02 1.91212118e-01 3.86289120e-01 2.79133826e-01
      7.93350711e-02 3.69304210e-01 1.17050514e-01 5.20723723e-02
      1.91202551e-01 3.86281669e-01 2.79113412e-01 7.93144926e-02
      4.57693189e-01 9.99989970e-06 2.59932422e-04 1.38786897e-01
      4.83580202e-01 2.49016270e-01 1.48778211e-03 4.57693189e-01
      9.99989970e-06 2.59932422e-04 1.38786897e-01 4.83580202e-01
      2.49016270e-01 1.48778211e-03 4.57693189e-01 9.99989970e-06
      2.59932422e-04 1.38786897e-01 4.83580202e-01 2.49016270e-01
      1.48778211e-03 4.57693189e-01 9.99989970e-06 2.59932422e-04
      1.38786897e-01 4.83580202e-01 2.49016270e-01 1.48778211e-03
      4.57653463e-01 8.77455845e-02 2.68338379e-02 1.72699153e-01
      3.93269271e-01 2.36091167e-01 4.89012003e-02 4.57653463e-01
      8.77453685e-02 2.68337708e-02 1.72698990e-01 3.93269300e-01
      2.36091077e-01 4.89010811e-02 4.57653463e-01 8.77452567e-02
      2.68337391e-02 1.72698915e-01 3.93269300e-01 2.36091018e-01
      4.89010215e-02 4.57653463e-01 8.77452046e-02 2.68337224e-02
      1.72698870e-01 3.93269330e-01 2.36091003e-01 4.89009917e-02
      3.83824915e-01 1.32674515e-01 3.99122126e-02 1.95944756e-01
      3.94004524e-01 2.54338086e-01 7.10512325e-02 3.83824944e-01
      1.32674485e-01 3.99121977e-02 1.95944741e-01 3.94004524e-01
      2.54338056e-01 7.10512176e-02 3.83824944e-01 1.32674471e-01
      3.99121940e-02 1.95944726e-01 3.94004524e-01 2.54338056e-01
      7.10512102e-02 3.83824944e-01 1.32674471e-01 3.99121903e-02
      1.95944726e-01 3.94004524e-01 2.54338056e-01 7.10512027e-02
      3.58121574e-01 1.14526749e-01 5.03998809e-02 1.84077621e-01
      3.96717221e-01 2.64855295e-01 7.43182898e-02 3.58121574e-01
      1.14526749e-01 5.03998809e-02 1.84077621e-01 3.96717221e-01
      2.64855295e-01 7.43182898e-02 3.58121574e-01 1.14526749e-01
      5.03998809e-02 1.84077621e-01 3.96717221e-01 2.64855295e-01
      7.43182898e-02 3.58121574e-01 1.14526749e-01 5.03998771e-02
      1.84077621e-01 3.96717221e-01 2.64855295e-01 7.43182898e-02
      4.36148614e-01 8.33326430e-06 2.16619723e-04 1.18672684e-01
      4.70984161e-01 2.18464628e-01 1.24012621e-03 4.36148614e-01
      8.33326430e-06 2.16619723e-04 1.18672684e-01 4.70984161e-01
      2.18464628e-01 1.24012621e-03 4.36148614e-01 8.33326430e-06
      2.16619723e-04 1.18672684e-01 4.70984161e-01 2.18464628e-01
      1.24012621e-03 4.36148614e-01 8.33326430e-06 2.16619723e-04
      1.18672684e-01 4.70984161e-01 2.18464628e-01 1.24012621e-03
      4.36118513e-01 8.36155266e-02 2.29436252e-02 1.60002053e-01
      3.95992249e-01 2.18523428e-01 4.28838171e-02 4.36118513e-01
      8.36155266e-02 2.29436252e-02 1.60002053e-01 3.95992249e-01
      2.18523428e-01 4.28838171e-02 4.36118513e-01 8.36155266e-02
      2.29436252e-02 1.60002053e-01 3.95992249e-01 2.18523428e-01
      4.28838171e-02 4.36118513e-01 8.36155266e-02 2.29436252e-02
      1.60002053e-01 3.95992249e-01 2.18523428e-01 4.28838171e-02
      3.67140085e-01 1.27881154e-01 3.78213748e-02 1.87007070e-01
      3.97515982e-01 2.41008341e-01 6.50241524e-02 3.67140085e-01
      1.27881154e-01 3.78213748e-02 1.87007070e-01 3.97515982e-01
      2.41008341e-01 6.50241524e-02 3.67140085e-01 1.27881154e-01
      3.78213748e-02 1.87007070e-01 3.97515982e-01 2.41008341e-01
      6.50241524e-02 3.67140085e-01 1.27881154e-01 3.78213748e-02
      1.87007070e-01 3.97515982e-01 2.41008341e-01 6.50241524e-02
      3.44906479e-01 1.11079231e-01 4.92792204e-02 1.78341508e-01
      4.00168151e-01 2.52735883e-01 7.02880099e-02 3.44906479e-01
      1.11079231e-01 4.92792204e-02 1.78341508e-01 4.00168151e-01
      2.52735883e-01 7.02880099e-02 3.44906479e-01 1.11079231e-01
      4.92792204e-02 1.78341508e-01 4.00168151e-01 2.52735883e-01
      7.02880099e-02 3.44906479e-01 1.11079231e-01 4.92792204e-02
      1.78341508e-01 4.00168151e-01 2.52735883e-01 7.02880099e-02
      4.14324641e-01 7.14280623e-06 1.85679804e-04 1.03623211e-01
      4.56423312e-01 1.94390520e-01 1.06315385e-03 4.14324641e-01
      7.14280623e-06 1.85679804e-04 1.03623211e-01 4.56423312e-01
      1.94390520e-01 1.06315385e-03 4.14324641e-01 7.14280623e-06
      1.85679804e-04 1.03623211e-01 4.56423312e-01 1.94390520e-01
      1.06315385e-03 4.14324641e-01 7.14280623e-06 1.85679804e-04
      1.03623211e-01 4.56423312e-01 1.94390520e-01 1.06315385e-03
      4.14301425e-01 7.94323012e-02 2.00333893e-02 1.49693072e-01
      3.93770486e-01 2.04099938e-01 3.81481163e-02 4.14301425e-01
      7.94323012e-02 2.00333893e-02 1.49693072e-01 3.93770486e-01
      2.04099938e-01 3.81481163e-02 4.14301425e-01 7.94323012e-02
      2.00333893e-02 1.49693072e-01 3.93770486e-01 2.04099938e-01
      3.81481163e-02 4.14301425e-01 7.94323012e-02 2.00333893e-02
      1.49693072e-01 3.93770486e-01 2.04099938e-01 3.81481163e-02
      3.50377977e-01 1.22538358e-01 3.62138897e-02 1.79159611e-01
      3.96045804e-01 2.29460657e-01 6.01597130e-02 3.50377977e-01
      1.22538358e-01 3.62138897e-02 1.79159611e-01 3.96045804e-01
      2.29460657e-01 6.01597130e-02 3.50377977e-01 1.22538358e-01
      3.62138897e-02 1.79159611e-01 3.96045804e-01 2.29460657e-01
      6.01597130e-02 3.50377977e-01 1.22538358e-01 3.62138897e-02
      1.79159611e-01 3.96045804e-01 2.29460657e-01 6.01597130e-02
      3.31188649e-01 1.07260898e-01 4.83797118e-02 1.73150077e-01
      3.98700148e-01 2.41965771e-01 6.68647140e-02 3.31188649e-01
      1.07260898e-01 4.83797118e-02 1.73150077e-01 3.98700148e-01
      2.41965771e-01 6.68647140e-02 3.31188649e-01 1.07260898e-01
      4.83797118e-02 1.73150077e-01 3.98700148e-01 2.41965771e-01
      6.68647140e-02 3.31188649e-01 1.07260898e-01 4.83797118e-02
      1.73150077e-01 3.98700148e-01 2.41965771e-01 6.68647140e-02
      3.93187970e-01 6.24996073e-06 1.62473603e-04 9.19476002e-02
      4.40882146e-01 1.74993366e-01 9.30383336e-04 3.93187970e-01
      6.24996073e-06 1.62473603e-04 9.19476002e-02 4.40882146e-01
      1.74993366e-01 9.30383336e-04 3.93187970e-01 6.24996073e-06
      1.62473603e-04 9.19476002e-02 4.40882146e-01 1.74993366e-01
      9.30383336e-04 3.93187970e-01 6.24996073e-06 1.62473603e-04
      9.19476002e-02 4.40882146e-01 1.74993366e-01 9.30383336e-04
      3.93169850e-01 7.53807202e-02 1.77757517e-02 1.40958667e-01
      3.88268083e-01 1.91881925e-01 3.43352929e-02 3.93169850e-01
      7.53807202e-02 1.77757517e-02 1.40958667e-01 3.88268083e-01
      1.91881925e-01 3.43352929e-02 3.93169850e-01 7.53807202e-02
      1.77757517e-02 1.40958667e-01 3.88268083e-01 1.91881925e-01
      3.43352929e-02 3.93169850e-01 7.53807202e-02 1.77757517e-02
      1.40958667e-01 3.88268083e-01 1.91881925e-01 3.43352929e-02
      3.34259897e-01 1.17078848e-01 3.48826982e-02 1.71982035e-01
      3.91212076e-01 2.19154149e-01 5.61117120e-02 3.34259897e-01
      1.17078848e-01 3.48826982e-02 1.71982035e-01 3.91212076e-01
      2.19154149e-01 5.61117120e-02 3.34259897e-01 1.17078848e-01
      3.48826982e-02 1.71982035e-01 3.91212076e-01 2.19154149e-01
      5.61117120e-02 3.34259897e-01 1.17078848e-01 3.48826982e-02
      1.71982035e-01 3.91212076e-01 2.19154149e-01 5.61117120e-02
      3.17751646e-01 1.03376925e-01 4.75562252e-02 1.68182686e-01
      3.93893182e-01 2.32129201e-01 6.38537854e-02 3.17751646e-01
      1.03376925e-01 4.75562252e-02 1.68182686e-01 3.93893182e-01
      2.32129201e-01 6.38537854e-02 3.17751646e-01 1.03376925e-01
      4.75562252e-02 1.68182686e-01 3.93893182e-01 2.32129201e-01
      6.38537854e-02 3.17751646e-01 1.03376925e-01 4.75562252e-02
      1.68182686e-01 3.93893182e-01 2.32129201e-01 6.38537854e-02
      3.73204589e-01 5.55552469e-06 1.44423582e-04 8.26293156e-02
      4.25054312e-01 1.59059465e-01 8.27092968e-04 3.73204589e-01
      5.55552469e-06 1.44423582e-04 8.26293156e-02 4.25054312e-01
      1.59059465e-01 8.27092968e-04 3.73204589e-01 5.55552469e-06
      1.44423582e-04 8.26293156e-02 4.25054312e-01 1.59059465e-01
      8.27092968e-04 3.73204589e-01 5.55552469e-06 1.44423582e-04
      8.26293156e-02 4.25054312e-01 1.59059465e-01 8.27092968e-04
      3.73190343e-01 7.15501308e-02 1.59740262e-02 1.33350894e-01
      3.80672276e-01 1.81287780e-01 3.12048011e-02 3.73190343e-01
      7.15501308e-02 1.59740262e-02 1.33350894e-01 3.80672276e-01
      1.81287780e-01 3.12048011e-02 3.73190343e-01 7.15501308e-02
      1.59740262e-02 1.33350894e-01 3.80672276e-01 1.81287780e-01
      3.12048011e-02 3.73190343e-01 7.15501308e-02 1.59740262e-02
      1.33350894e-01 3.80672276e-01 1.81287780e-01 3.12048011e-02
      3.19103122e-01 1.11736901e-01 3.37189771e-02 1.65293038e-01
      3.84186596e-01 2.09782675e-01 5.26614189e-02 3.19103122e-01
      1.11736901e-01 3.37189771e-02 1.65293038e-01 3.84186596e-01
      2.09782675e-01 5.26614189e-02 3.19103122e-01 1.11736901e-01
      3.37189771e-02 1.65293038e-01 3.84186596e-01 2.09782675e-01
      5.26614189e-02 3.19103122e-01 1.11736901e-01 3.37189771e-02
      1.65293038e-01 3.84186596e-01 2.09782675e-01 5.26614189e-02
      3.04958075e-01 9.95819420e-02 4.67441007e-02 1.63333625e-01
      3.86899263e-01 2.23008826e-01 6.11435138e-02 3.04958075e-01
      9.95819420e-02 4.67441007e-02 1.63333625e-01 3.86899263e-01
      2.23008826e-01 6.11435138e-02 3.04958075e-01 9.95819420e-02
      4.67441007e-02 1.63333625e-01 3.86899263e-01 2.23008826e-01
      6.11435138e-02 3.04958075e-01 9.95819420e-02 4.67441007e-02
      1.63333625e-01 3.86899263e-01 2.23008826e-01 6.11435138e-02
      3.54557902e-01 4.99997486e-06 1.29983106e-04 7.50217065e-02
      4.09391493e-01 1.45751700e-01 7.44445249e-04 3.54557902e-01
      4.99997486e-06 1.29983106e-04 7.50217065e-02 4.09391493e-01
      1.45751700e-01 7.44445249e-04 3.54557902e-01 4.99997486e-06
      1.29983106e-04 7.50217065e-02 4.09391493e-01 1.45751700e-01
      7.44445249e-04 3.54557902e-01 4.99997486e-06 1.29983106e-04
      7.50217065e-02 4.09391493e-01 1.45751700e-01 7.44445249e-04
      3.54546607e-01 6.79756925e-02 1.45031251e-02 1.26602799e-01
      3.71808350e-01 1.71943203e-01 2.85911951e-02 3.54546607e-01
      6.79756925e-02 1.45031251e-02 1.26602799e-01 3.71808350e-01
      1.71943203e-01 2.85911951e-02 3.54546607e-01 6.79756925e-02
      1.45031251e-02 1.26602799e-01 3.71808350e-01 1.71943203e-01
      2.85911951e-02 3.54546607e-01 6.79756925e-02 1.45031251e-02
      1.26602799e-01 3.71808350e-01 1.71943203e-01 2.85911951e-02
      3.05007756e-01 1.06631555e-01 3.26642543e-02 1.59010589e-01
      3.75795811e-01 2.01165497e-01 4.96658534e-02 3.05007756e-01
      1.06631555e-01 3.26642543e-02 1.59010589e-01 3.75795811e-01
      2.01165497e-01 4.96658534e-02 3.05007756e-01 1.06631555e-01
      3.26642543e-02 1.59010589e-01 3.75795811e-01 2.01165497e-01
      4.96658534e-02 3.05007756e-01 1.06631555e-01 3.26642543e-02
      1.59010589e-01 3.75795811e-01 2.01165497e-01 4.96658534e-02
      2.92945772e-01 9.59489644e-02 4.59182821e-02 1.58582732e-01
      3.78535450e-01 2.14487076e-01 5.86675629e-02 2.92945772e-01
      9.59489644e-02 4.59182821e-02 1.58582732e-01 3.78535450e-01
      2.14487076e-01 5.86675629e-02 2.92945772e-01 9.59489644e-02
      4.59182821e-02 1.58582732e-01 3.78535450e-01 2.14487076e-01
      5.86675629e-02 2.92945772e-01 9.59489644e-02 4.59182821e-02
      1.58582732e-01 3.78535450e-01 2.14487076e-01 5.86675629e-02</_>
    <_>
      5.12356823e-03 5.00000000e-01 4.99750080e-04 2.63225526e-01
      4.99286950e-01 5.00000000e-01 9.99900003e-05 5.12356823e-03
      5.00000000e-01 4.99750080e-04 2.63225526e-01 4.99286950e-01
      5.00000000e-01 9.99900003e-05 5.12356823e-03 5.00000000e-01
      4.99750080e-04 2.63225526e-01 4.99286950e-01 5.00000000e-01
      9.99900003e-05 5.12356823e-03 5.00000000e-01 4.99750080e-04
      2.63225526e-01 4.99286950e-01 5.00000000e-01 9.99900003e-05
      1.27433881e-01 4.98594165e-01 1.25184104e-01 2.56556511e-01
      3.08930933e-01 3.75153273e-01 1.25049978e-01 1.27433881e-01
      4.98594165e-01 1.25184104e-01 2.56556511e-01 3.08930933e-01
      3.75153273e-01 1.25049978e-01 1.27433881e-01 4.98594165e-01
      1.25184104e-01 2.56556511e-01 3.08930933e-01 3.75153273e-01
      1.25049978e-01 1.27433881e-01 4.98594165e-01 1.25184104e-01
      2.56556511e-01 3.08930933e-01 3.75153273e-01 1.25049978e-01
      2.02324420e-01 4.29246843e-01 1.66258469e-01 1.69580668e-01
      3.30147177e-01 3.59691709e-01 1.66773662e-01 2.02324420e-01
      4.29246843e-01 1.66258469e-01 1.69580668e-01 3.30147177e-01
      3.59691709e-01 1.66773662e-01 2.02324420e-01 4.29246843e-01
      1.66258469e-01 1.69580668e-01 3.30147177e-01 3.59691709e-01
      1.66773662e-01 2.02324420e-01 4.29246843e-01 1.66258469e-01
      1.69580668e-01 3.30147177e-01 3.59691709e-01 1.66773662e-01
      2.25324109e-01 3.26661795e-01 1.80741176e-01 1.88812658e-01
      2.79426545e-01 3.73309433e-01 2.02351570e-01 2.25324109e-01
      3.26661795e-01 1.80741176e-01 1.88812658e-01 2.79426545e-01
      3.73309433e-01 2.02351570e-01 2.25324109e-01 3.26661795e-01
      1.80741176e-01 1.88812658e-01 2.79426545e-01 3.73309433e-01
      2.02351570e-01 2.25324109e-01 3.26661795e-01 1.80741176e-01
      1.88812658e-01 2.79426545e-01 3.73309433e-01 2.02351570e-01
      2.56838067e-03 4.99969810e-01 2.49937497e-04 1.55925542e-01
      4.81118023e-01 4.99985158e-01 4.99974994e-05 2.56838067e-03
      4.99969810e-01 2.49937497e-04 1.55925542e-01 4.81118023e-01
      4.99985158e-01 4.99974994e-05 2.56838067e-03 4.99969810e-01
      2.49937497e-04 1.55925542e-01 4.81118023e-01 4.99985158e-01
      4.99974994e-05 2.56838067e-03 4.99969810e-01 2.49937497e-04
      1.55925542e-01 4.81118023e-01 4.99985158e-01 4.99974994e-05
      1.26244202e-01 4.99265313e-01 1.25100300e-01 2.01168597e-01
      3.28053176e-01 3.79700303e-01 1.25021294e-01 1.26244202e-01
      4.99265313e-01 1.25100300e-01 2.01168597e-01 3.28053176e-01
      3.79700303e-01 1.25021294e-01 1.26244202e-01 4.99265313e-01
      1.25100300e-01 2.01168597e-01 3.28053176e-01 3.79700303e-01
      1.25021294e-01 1.26244202e-01 4.99265313e-01 1.25100300e-01
      2.01168597e-01 3.28053176e-01 3.79700303e-01 1.25021294e-01
      2.11058781e-01 4.59026992e-01 1.68522120e-01 1.44969761e-01
      3.49204600e-01 3.75066966e-01 1.68775126e-01 2.11058781e-01
      4.59026992e-01 1.68522120e-01 1.44969761e-01 3.49204600e-01
      3.75066966e-01 1.68775126e-01 2.11058781e-01 4.59026992e-01
      1.68522120e-01 1.44969761e-01 3.49204600e-01 3.75066966e-01
      1.68775126e-01 2.11058781e-01 4.59026992e-01 1.68522120e-01
      1.44969761e-01 3.49204600e-01 3.75066966e-01 1.68775126e-01
      2.48867720e-01 3.63296032e-01 1.85188547e-01 1.75135165e-01
      2.90167838e-01 3.89493763e-01 2.10987672e-01 2.48867720e-01
      3.63296032e-01 1.85188547e-01 1.75135165e-01 2.90167838e-01
      3.89493763e-01 2.10987672e-01 2.48867720e-01 3.63296032e-01
      1.85188547e-01 1.75135165e-01 2.90167838e-01 3.89493763e-01
      2.10987672e-01 2.48867720e-01 3.63296032e-01 1.85188547e-01
      1.75135165e-01 2.90167838e-01 3.89493763e-01 2.10987672e-01
      1.71372306e-03 4.99230385e-01 1.66638885e-04 1.10274971e-01
      4.43719864e-01 4.99520749e-01 3.33322205e-05 1.71372306e-03
      4.99230385e-01 1.66638885e-04 1.10274971e-01 4.43719864e-01
      4.99520749e-01 3.33322205e-05 1.71372306e-03 4.99230385e-01
      1.66638885e-04 1.10274971e-01 4.43719864e-01 4.99520749e-01
      3.33322205e-05 1.71372306e-03 4.99230385e-01 1.66638885e-04
      1.10274971e-01 4.43719864e-01 4.99520749e-01 3.33322205e-05
      1.25657618e-01 4.98761743e-01 1.24924272e-01 1.72268212e-01
      3.22490156e-01 3.88795108e-01 1.24896884e-01 1.25657618e-01
      4.98761743e-01 1.24924272e-01 1.72268212e-01 3.22490156e-01
      3.88795108e-01 1.24896884e-01 1.25657618e-01 4.98761743e-01
      1.24924272e-01 1.72268212e-01 3.22490156e-01 3.88795108e-01
      1.24896884e-01 1.25657618e-01 4.98761743e-01 1.24924272e-01
      1.72268212e-01 3.22490156e-01 3.88795108e-01 1.24896884e-01
      2.14187831e-01 4.70555365e-01 1.72616214e-01 1.32265970e-01
      3.48422438e-01 3.87549669e-01 1.72810808e-01 2.14187786e-01
      4.70555365e-01 1.72616184e-01 1.32265955e-01 3.48422438e-01
      3.87549669e-01 1.72810778e-01 2.14187637e-01 4.70555395e-01
      1.72616065e-01 1.32265896e-01 3.48422378e-01 3.87549639e-01
      1.72810644e-01 2.14187041e-01 4.70555425e-01 1.72615573e-01
      1.32265702e-01 3.48422140e-01 3.87549549e-01 1.72810167e-01
      2.58191526e-01 3.82732600e-01 1.88579351e-01 1.68118879e-01
      2.89877832e-01 4.01265323e-01 2.18000457e-01 2.58177668e-01
      3.82739395e-01 1.88569397e-01 1.68107390e-01 2.89877385e-01
      4.01260942e-01 2.17986897e-01 2.58123904e-01 3.82765740e-01
      1.88530803e-01 1.68062881e-01 2.89875746e-01 4.01244015e-01
      2.17934355e-01 2.57921636e-01 3.82865041e-01 1.88385561e-01
      1.67895496e-01 2.89869577e-01 4.01180297e-01 2.17736617e-01
      1.28584378e-03 4.96114463e-01 1.24984377e-04 8.52262899e-02
      4.02835250e-01 4.97276247e-01 2.49993755e-05 1.28584378e-03
      4.96114463e-01 1.24984377e-04 8.52262899e-02 4.02835250e-01
      4.97276247e-01 2.49993755e-05 1.28584378e-03 4.96114463e-01
      1.24984377e-04 8.52262899e-02 4.02835250e-01 4.97276247e-01
      2.49993755e-05 1.28584378e-03 4.96114463e-01 1.24984377e-04
      8.52262899e-02 4.02835250e-01 4.97276247e-01 2.49993755e-05
      1.12632222e-01 4.95767862e-01 1.12148203e-01 1.43501148e-01
      3.07626337e-01 3.97855312e-01 1.12213418e-01 1.06845073e-01
      4.95768815e-01 1.06340110e-01 1.39646396e-01 3.06860834e-01
      3.98141831e-01 1.06398232e-01 1.02296345e-01 4.95769918e-01
      1.01774633e-01 1.36632919e-01 3.06372344e-01 3.98463726e-01
      1.01827145e-01 9.93629470e-02 4.95770782e-01 9.88302976e-02
      1.34697706e-01 3.06113660e-01 3.98719460e-01 9.88791808e-02
      1.53754488e-01 4.79244739e-01 1.27592325e-01 1.05938472e-01
      3.18055421e-01 3.91443104e-01 1.27765775e-01 1.51799724e-01
      4.79443669e-01 1.26061633e-01 1.05544075e-01 3.17449927e-01
      3.91375035e-01 1.26232147e-01 1.50789753e-01 4.79547292e-01
      1.25271305e-01 1.05343796e-01 3.17141443e-01 3.91343832e-01
      1.25440314e-01 1.50276378e-01 4.79600191e-01 1.24869719e-01
      1.05242893e-01 3.16985786e-01 3.91329020e-01 1.25037953e-01
      1.68208599e-01 4.43080544e-01 1.29457057e-01 1.08592778e-01
      2.89423794e-01 3.92187923e-01 1.39640555e-01 1.68032646e-01
      4.43175316e-01 1.29343331e-01 1.08535051e-01 2.89440811e-01
      3.92172009e-01 1.39495045e-01 1.67944506e-01 4.43222791e-01
      1.29286364e-01 1.08506195e-01 2.89449334e-01 3.92164081e-01
      1.39422178e-01 1.67900398e-01 4.43246543e-01 1.29257843e-01
      1.08491771e-01 2.89453626e-01 3.92160118e-01 1.39385715e-01
      1.02893985e-03 4.89735126e-01 9.99900003e-05 6.94307834e-02
      3.65165502e-01 4.92274493e-01 1.99995993e-05 1.02893985e-03
      4.89735126e-01 9.99900003e-05 6.94307834e-02 3.65165502e-01
      4.92274493e-01 1.99995993e-05 1.02893985e-03 4.89735126e-01
      9.99900003e-05 6.94307834e-02 3.65165502e-01 4.92274493e-01
      1.99995993e-05 1.02893985e-03 4.89735126e-01 9.99900003e-05
      6.94307834e-02 3.65165502e-01 4.92274493e-01 1.99995993e-05
      9.45008099e-02 4.89467412e-01 9.42043811e-02 1.17229559e-01
      2.89696246e-01 4.04860228e-01 9.43757743e-02 9.45005789e-02
      4.89467412e-01 9.42041427e-02 1.17229410e-01 2.89696217e-01
      4.04860228e-01 9.43755433e-02 9.45004597e-02 4.89467412e-01
      9.42040309e-02 1.17229335e-01 2.89696187e-01 4.04860258e-01
      9.43754241e-02 9.45004001e-02 4.89467412e-01 9.42039713e-02
      1.17229298e-01 2.89696187e-01 4.04860258e-01 9.43753645e-02
      1.48565248e-01 4.76576895e-01 1.25926182e-01 9.63695794e-02
      3.04965913e-01 3.98519367e-01 1.26220971e-01 1.48565218e-01
      4.76576895e-01 1.25926167e-01 9.63695720e-02 3.04965883e-01
      3.98519367e-01 1.26220942e-01 1.48565203e-01 4.76576895e-01
      1.25926152e-01 9.63695645e-02 3.04965883e-01 3.98519367e-01
      1.26220927e-01 1.48565188e-01 4.76576895e-01 1.25926137e-01
      9.63695645e-02 3.04965883e-01 3.98519367e-01 1.26220927e-01
      1.67343736e-01 4.44083601e-01 1.30506516e-01 1.01488777e-01
      2.80131906e-01 3.99492413e-01 1.41703948e-01 1.67343736e-01
      4.44083601e-01 1.30506501e-01 1.01488777e-01 2.80131906e-01
      3.99492413e-01 1.41703948e-01 1.67343736e-01 4.44083601e-01
      1.30506501e-01 1.01488777e-01 2.80131906e-01 3.99492413e-01
      1.41703933e-01 1.67343736e-01 4.44083601e-01 1.30506501e-01
      1.01488777e-01 2.80131906e-01 3.99492413e-01 1.41703933e-01
      8.57597042e-04 4.80383426e-01 8.33263912e-05 5.85676581e-02
      3.32249999e-01 4.84520108e-01 1.66663885e-05 8.57597042e-04
      4.80383426e-01 8.33263912e-05 5.85676581e-02 3.32249999e-01
      4.84520108e-01 1.66663885e-05 8.57597042e-04 4.80383426e-01
      8.33263912e-05 5.85676581e-02 3.32249999e-01 4.84520108e-01
      1.66663885e-05 8.57597042e-04 4.80383426e-01 8.33263912e-05
      5.85676581e-02 3.32249999e-01 4.84520108e-01 1.66663885e-05
      9.26428437e-02 4.80167985e-01 9.25706849e-02 1.05219491e-01
      2.74701655e-01 4.07241732e-01 9.28871706e-02 9.26428437e-02
      4.80167985e-01 9.25706849e-02 1.05219491e-01 2.74701655e-01
      4.07241732e-01 9.28871706e-02 9.26428437e-02 4.80167985e-01
      9.25706774e-02 1.05219491e-01 2.74701655e-01 4.07241732e-01
      9.28871706e-02 9.26428437e-02 4.80167985e-01 9.25706774e-02
      1.05219491e-01 2.74701655e-01 4.07241732e-01 9.28871706e-02
      1.46251425e-01 4.69573677e-01 1.26294538e-01 8.97662863e-02
      2.93542206e-01 4.02243882e-01 1.26755476e-01 1.46251425e-01
      4.69573677e-01 1.26294538e-01 8.97662863e-02 2.93542206e-01
      4.02243882e-01 1.26755476e-01 1.46251425e-01 4.69573677e-01
      1.26294538e-01 8.97662863e-02 2.93542206e-01 4.02243882e-01
      1.26755476e-01 1.46251425e-01 4.69573677e-01 1.26294538e-01
      8.97662863e-02 2.93542206e-01 4.02243882e-01 1.26755476e-01
      1.65299013e-01 4.40627098e-01 1.30813718e-01 9.63719338e-02
      2.71320939e-01 4.03380424e-01 1.42818198e-01 1.65299013e-01
      4.40627098e-01 1.30813718e-01 9.63719338e-02 2.71320939e-01
      4.03380424e-01 1.42818198e-01 1.65299013e-01 4.40627098e-01
      1.30813718e-01 9.63719338e-02 2.71320939e-01 4.03380424e-01
      1.42818198e-01 1.65299013e-01 4.40627098e-01 1.30813718e-01
      9.63719338e-02 2.71320939e-01 4.03380424e-01 1.42818198e-01
      7.35173293e-04 4.68844861e-01 7.14234702e-05 5.06408811e-02
      3.03925663e-01 4.74568725e-01 1.42855106e-05 7.35173293e-04
      4.68844861e-01 7.14234702e-05 5.06408811e-02 3.03925663e-01
      4.74568725e-01 1.42855106e-05 7.35173293e-04 4.68844861e-01
      7.14234702e-05 5.06408811e-02 3.03925663e-01 4.74568725e-01
      1.42855106e-05 7.35173293e-04 4.68844861e-01 7.14234702e-05
      5.06408811e-02 3.03925663e-01 4.74568725e-01 1.42855106e-05
      9.03922021e-02 4.68668312e-01 9.05176997e-02 9.54261199e-02
      2.61214823e-01 4.06527042e-01 9.09784287e-02 9.03922021e-02
      4.68668312e-01 9.05176997e-02 9.54261199e-02 2.61214823e-01
      4.06527042e-01 9.09784287e-02 9.03922021e-02 4.68668312e-01
      9.05176997e-02 9.54261199e-02 2.61214823e-01 4.06527042e-01
      9.09784287e-02 9.03922021e-02 4.68668312e-01 9.05176997e-02
      9.54261199e-02 2.61214823e-01 4.06527042e-01 9.09784287e-02
      1.43132314e-01 4.59799170e-01 1.25700906e-01 8.46193880e-02
      2.82895535e-01 4.02801692e-01 1.26340047e-01 1.43132314e-01
      4.59799170e-01 1.25700906e-01 8.46193880e-02 2.82895535e-01
      4.02801692e-01 1.26340047e-01 1.43132314e-01 4.59799170e-01
      1.25700906e-01 8.46193880e-02 2.82895535e-01 4.02801692e-01
      1.26340047e-01 1.43132314e-01 4.59799170e-01 1.25700906e-01
      8.46193880e-02 2.82895535e-01 4.02801692e-01 1.26340047e-01
      1.62178665e-01 4.34017420e-01 1.30281329e-01 9.24822316e-02
      2.63203740e-01 4.04124439e-01 1.42809138e-01 1.62178665e-01
      4.34017420e-01 1.30281329e-01 9.24822316e-02 2.63203740e-01
      4.04124439e-01 1.42809138e-01 1.62178665e-01 4.34017420e-01
      1.30281329e-01 9.24822316e-02 2.63203740e-01 4.04124439e-01
      1.42809138e-01 1.62178665e-01 4.34017420e-01 1.30281329e-01
      9.24822316e-02 2.63203740e-01 4.04124439e-01 1.42809138e-01
      6.43335748e-04 4.55923229e-01 6.24960958e-05 4.46025282e-02
      2.79585898e-01 4.63096440e-01 1.24998442e-05 6.43335748e-04
      4.55923229e-01 6.24960958e-05 4.46025282e-02 2.79585898e-01
      4.63096440e-01 1.24998442e-05 6.43335748e-04 4.55923229e-01
      6.24960958e-05 4.46025282e-02 2.79585898e-01 4.63096440e-01
      1.24998442e-05 6.43335748e-04 4.55923229e-01 6.24960958e-05
      4.46025282e-02 2.79585898e-01 4.63096440e-01 1.24998442e-05
      8.78903195e-02 4.55776721e-01 8.81854370e-02 8.72800946e-02
      2.49121457e-01 4.03312713e-01 8.87784734e-02 8.78903195e-02
      4.55776721e-01 8.81854370e-02 8.72800946e-02 2.49121457e-01
      4.03312713e-01 8.87784734e-02 8.78903195e-02 4.55776721e-01
      8.81854370e-02 8.72800946e-02 2.49121457e-01 4.03312713e-01
      8.87784734e-02 8.78903195e-02 4.55776721e-01 8.81854370e-02
      8.72800946e-02 2.49121457e-01 4.03312713e-01 8.87784734e-02
      1.39494017e-01 4.48249370e-01 1.24354571e-01 8.04721862e-02
      2.72997022e-01 4.00766343e-01 1.25166386e-01 1.39494017e-01
      4.48249370e-01 1.24354571e-01 8.04721862e-02 2.72997022e-01
      4.00766343e-01 1.25166386e-01 1.39494017e-01 4.48249370e-01
      1.24354571e-01 8.04721862e-02 2.72997022e-01 4.00766343e-01
      1.25166386e-01 1.39494017e-01 4.48249370e-01 1.24354571e-01
      8.04721862e-02 2.72997022e-01 4.00766343e-01 1.25166386e-01
      1.58360079e-01 4.25255686e-01 1.29092067e-01 8.93989578e-02
      2.55678803e-01 4.02280599e-01 1.41889676e-01 1.58360079e-01
      4.25255686e-01 1.29092067e-01 8.93989578e-02 2.55678803e-01
      4.02280599e-01 1.41889676e-01 1.58360079e-01 4.25255686e-01
      1.29092067e-01 8.93989578e-02 2.55678803e-01 4.02280599e-01
      1.41889676e-01 1.58360079e-01 4.25255686e-01 1.29092067e-01
      8.93989578e-02 2.55678803e-01 4.02280599e-01 1.41889676e-01
      5.71894925e-04 4.42269474e-01 5.55524675e-05 3.98499928e-02
      2.58584559e-01 4.50701326e-01 1.11109875e-05 5.71894925e-04
      4.42269474e-01 5.55524675e-05 3.98499928e-02 2.58584559e-01
      4.50701326e-01 1.11109875e-05 5.71894925e-04 4.42269474e-01
      5.55524675e-05 3.98499928e-02 2.58584559e-01 4.50701326e-01
      1.11109875e-05 5.71894925e-04 4.42269474e-01 5.55524675e-05
      3.98499928e-02 2.58584559e-01 4.50701326e-01 1.11109875e-05
      8.52556154e-02 4.42146778e-01 8.56932178e-02 8.03983733e-02
      2.38218516e-01 3.98215145e-01 8.64018202e-02 8.52556154e-02
      4.42146778e-01 8.56932178e-02 8.03983733e-02 2.38218516e-01
      3.98215145e-01 8.64018202e-02 8.52556154e-02 4.42146778e-01
      8.56932178e-02 8.03983733e-02 2.38218516e-01 3.98215145e-01
      8.64018202e-02 8.52556154e-02 4.42146778e-01 8.56932178e-02
      8.03983733e-02 2.38218516e-01 3.98215145e-01 8.64018202e-02
      1.35560751e-01 4.35688257e-01 1.22459017e-01 7.70244896e-02
      2.63748676e-01 3.96736264e-01 1.23428538e-01 1.35560751e-01
      4.35688257e-01 1.22459017e-01 7.70244896e-02 2.63748676e-01
      3.96736264e-01 1.23428538e-01 1.35560751e-01 4.35688257e-01
      1.22459017e-01 7.70244896e-02 2.63748676e-01 3.96736264e-01
      1.23428538e-01 1.35560751e-01 4.35688257e-01 1.22459017e-01
      7.70244896e-02 2.63748676e-01 3.96736264e-01 1.23428538e-01
      1.54129550e-01 4.15133804e-01 1.27418280e-01 8.68472159e-02
      2.48617500e-01 3.98434043e-01 1.40278772e-01 1.54129550e-01
      4.15133804e-01 1.27418280e-01 8.68472159e-02 2.48617500e-01
      3.98434043e-01 1.40278772e-01 1.54129550e-01 4.15133804e-01
      1.27418280e-01 8.68472159e-02 2.48617500e-01 3.98434043e-01
      1.40278772e-01 1.54129550e-01 4.15133804e-01 1.27418280e-01
      8.68472159e-02 2.48617500e-01 3.98434043e-01 1.40278772e-01
      5.14734886e-04 4.28358972e-01 4.99974994e-05 3.60122733e-02
      2.40351677e-01 4.37848926e-01 9.99989970e-06 5.14734886e-04
      4.28358972e-01 4.99974994e-05 3.60122733e-02 2.40351677e-01
      4.37848926e-01 9.99989970e-06 5.14734886e-04 4.28358972e-01
      4.99974994e-05 3.60122733e-02 2.40351677e-01 4.37848926e-01
      9.99989970e-06 5.14734886e-04 4.28358972e-01 4.99974994e-05
      3.60122733e-02 2.40351677e-01 4.37848926e-01 9.99989970e-06
      8.25757831e-02 4.28255379e-01 8.31312388e-02 7.45096207e-02
      2.28316307e-01 3.91768664e-01 8.39376450e-02 8.25757831e-02
      4.28255379e-01 8.31312388e-02 7.45096207e-02 2.28316307e-01
      3.91768664e-01 8.39376450e-02 8.25757831e-02 4.28255379e-01
      8.31312388e-02 7.45096207e-02 2.28316307e-01 3.91768664e-01
      8.39376450e-02 8.25757831e-02 4.28255379e-01 8.31312388e-02
      7.45096207e-02 2.28316307e-01 3.91768664e-01 8.39376450e-02
      1.31495073e-01 4.22663629e-01 1.20184317e-01 7.40770549e-02
      2.55061120e-01 3.91239315e-01 1.21292591e-01 1.31495073e-01
      4.22663629e-01 1.20184317e-01 7.40770549e-02 2.55061120e-01
      3.91239315e-01 1.21292591e-01 1.31495073e-01 4.22663629e-01
      1.20184317e-01 7.40770549e-02 2.55061120e-01 3.91239315e-01
      1.21292591e-01 1.31495073e-01 4.22663629e-01 1.20184317e-01
      7.40770549e-02 2.55061120e-01 3.91239315e-01 1.21292591e-01
      1.49692476e-01 4.04236943e-01 1.25402525e-01 8.46489072e-02
      2.41922081e-01 3.93104672e-01 1.38166860e-01 1.49692476e-01
      4.04236943e-01 1.25402525e-01 8.46489072e-02 2.41922081e-01
      3.93104672e-01 1.38166860e-01 1.49692476e-01 4.04236943e-01
      1.25402525e-01 8.46489072e-02 2.41922081e-01 3.93104672e-01
      1.38166860e-01 1.49692476e-01 4.04236943e-01 1.25402525e-01
      8.46489072e-02 2.41922081e-01 3.93104672e-01 1.38166860e-01</_>
    <_>
      1.39030460e-02 3.99840035e-04 9.99900003e-05 3.88211578e-01
      2.99910025e-04 9.99900003e-05 4.99974994e-05 1.39030460e-02
      3.99840035e-04 9.99900003e-05 3.88211578e-01 2.99910025e-04
      9.99900003e-05 4.99974994e-05 1.39030460e-02 3.99840035e-04
      9.99900003e-05 3.88211578e-01 2.99910025e-04 9.99900003e-05
      4.99974994e-05 1.39030460e-02 3.99840035e-04 9.99900003e-05
      3.88211578e-01 2.99910025e-04 9.99900003e-05 4.99974994e-05
      1.42801907e-02 3.89430556e-03 9.71363857e-02 3.88156295e-01
      9.72419456e-02 1.87424390e-04 8.74843754e-05 1.42801907e-02
      3.89430556e-03 9.71363857e-02 3.88156295e-01 9.72419456e-02
      1.87424390e-04 8.74843754e-05 1.42801907e-02 3.89430556e-03
      9.71363857e-02 3.88156295e-01 9.72419456e-02 1.87424390e-04
      8.74843754e-05 1.42801907e-02 3.89430556e-03 9.71363857e-02
      3.88156295e-01 9.72419456e-02 1.87424390e-04 8.74843754e-05
      1.47147365e-02 4.72571850e-02 1.71752736e-01 3.88108462e-01
      1.72683835e-01 4.33050692e-02 4.04523889e-04 1.47147365e-02
      4.72571850e-02 1.71752736e-01 3.88108462e-01 1.72683835e-01
      4.33050692e-02 4.04523889e-04 1.47147365e-02 4.72571850e-02
      1.71752736e-01 3.88108462e-01 1.72683835e-01 4.33050692e-02
      4.04523889e-04 1.47147365e-02 4.72571850e-02 1.71752736e-01
      3.88108462e-01 1.72683835e-01 4.33050692e-02 4.04523889e-04
      3.63117829e-02 1.01096444e-01 2.17767090e-01 3.86298567e-01
      2.18463242e-01 9.71287861e-02 2.47650556e-02 3.63117829e-02
      1.01096444e-01 2.17767090e-01 3.86298567e-01 2.18463242e-01
      9.71287861e-02 2.47650556e-02 3.63117829e-02 1.01096444e-01
      2.17767090e-01 3.86298567e-01 2.18463242e-01 9.71287861e-02
      2.47650556e-02 3.63117829e-02 1.01096444e-01 2.17767090e-01
      3.86298567e-01 2.18463242e-01 9.71287861e-02 2.47650556e-02
      7.00053014e-03 1.99960006e-04 4.99974994e-05 2.63580412e-01
      1.49977495e-04 4.99974994e-05 2.49993755e-05 7.00053014e-03
      1.99960006e-04 4.99974994e-05 2.63580412e-01 1.49977495e-04
      4.99974994e-05 2.49993755e-05 7.00053014e-03 1.99960006e-04
      4.99974994e-05 2.63580412e-01 1.49977495e-04 4.99974994e-05
      2.49993755e-05 7.00053014e-03 1.99960006e-04 4.99974994e-05
      2.63580412e-01 1.49977495e-04 4.99974994e-05 2.49993755e-05
      7.19477376e-03 1.96100725e-03 6.59555569e-02 2.63577700e-01
      6.60114586e-02 9.37310979e-05 4.37460949e-05 7.19477376e-03
      1.96100725e-03 6.59555569e-02 2.63577700e-01 6.60114586e-02
      9.37310979e-05 4.37460949e-05 7.19477376e-03 1.96100725e-03
      6.59555569e-02 2.63577700e-01 6.60114586e-02 9.37310979e-05
      4.37460949e-05 7.19477376e-03 1.96100725e-03 6.59555569e-02
      2.63577700e-01 6.60114586e-02 9.37310979e-05 4.37460949e-05
      7.41725648e-03 3.17874365e-02 1.17177568e-01 2.63582855e-01
      1.17254168e-01 2.93864943e-02 2.02519615e-04 7.41725648e-03
      3.17874365e-02 1.17177568e-01 2.63582855e-01 1.17254168e-01
      2.93864943e-02 2.02519615e-04 7.41725648e-03 3.17874365e-02
      1.17177568e-01 2.63582855e-01 1.17254168e-01 2.93864943e-02
      2.02519615e-04 7.41725648e-03 3.17874365e-02 1.17177568e-01
      2.63582855e-01 1.17254168e-01 2.93864943e-02 2.02519615e-04
      2.30664276e-02 6.86775595e-02 1.48696586e-01 2.63123363e-01
      1.48363695e-01 6.59945533e-02 1.67721156e-02 2.30664276e-02
      6.86775595e-02 1.48696586e-01 2.63123363e-01 1.48363695e-01
      6.59945533e-02 1.67721156e-02 2.30664276e-02 6.86775595e-02
      1.48696586e-01 2.63123363e-01 1.48363695e-01 6.59945533e-02
      1.67721156e-02 2.30664276e-02 6.86775595e-02 1.48696586e-01
      2.63123363e-01 1.48363695e-01 6.59945533e-02 1.67721156e-02
      4.67797928e-03 1.33315552e-04 3.33322205e-05 1.96532428e-01
      9.99900003e-05 3.33322205e-05 1.66663885e-05 4.67797928e-03
      1.33315552e-04 3.33322205e-05 1.96532428e-01 9.99900003e-05
      3.33322205e-05 1.66663885e-05 4.67797928e-03 1.33315552e-04
      3.33322205e-05 1.96532428e-01 9.99900003e-05 3.33322205e-05
      1.66663885e-05 4.67797928e-03 1.33315552e-04 3.33322205e-05
      1.96532428e-01 9.99900003e-05 3.33322205e-05 1.66663885e-05
      4.80874768e-03 1.31043734e-03 4.91801128e-02 1.96539551e-01
      4.92185019e-02 6.24915992e-05 2.91649303e-05 4.80874768e-03
      1.31043734e-03 4.91801128e-02 1.96539551e-01 4.92185019e-02
      6.24915992e-05 2.91649303e-05 4.80874768e-03 1.31043734e-03
      4.91801128e-02 1.96539551e-01 4.92184982e-02 6.24915992e-05
      2.91649303e-05 4.80874768e-03 1.31043734e-03 4.91801128e-02
      1.96539551e-01 4.92184982e-02 6.24915992e-05 2.91649303e-05
      4.95823985e-03 2.36605965e-02 8.75215232e-02 1.96553424e-01
      8.74316990e-02 2.19086725e-02 1.35070397e-04 4.95823985e-03
      2.36605871e-02 8.75215083e-02 1.96553424e-01 8.74316841e-02
      2.19086632e-02 1.35070353e-04 4.95823938e-03 2.36605480e-02
      8.75214413e-02 1.96553424e-01 8.74316245e-02 2.19086241e-02
      1.35070164e-04 4.95823845e-03 2.36603897e-02 8.75211954e-02
      1.96553424e-01 8.74313787e-02 2.19084714e-02 1.35069422e-04
      1.68754477e-02 5.12583591e-02 1.11101002e-01 1.96408898e-01
      1.10632762e-01 4.92192842e-02 1.24981841e-02 1.68726426e-02
      5.12518026e-02 1.11094847e-01 1.96408883e-01 1.10626698e-01
      4.92128097e-02 1.24953333e-02 1.68617703e-02 5.12263812e-02
      1.11070961e-01 1.96408793e-01 1.10603184e-01 4.91877124e-02
      1.24842813e-02 1.68209076e-02 5.11307567e-02 1.10981070e-01
      1.96408495e-01 1.10514663e-01 4.90933023e-02 1.24427434e-02
      3.51260346e-03 9.99900003e-05 2.49993755e-05 1.56183496e-01
      7.49943720e-05 2.49993755e-05 1.24998442e-05 3.51260346e-03
      9.99900003e-05 2.49993755e-05 1.56183496e-01 7.49943720e-05
      2.49993755e-05 1.24998442e-05 3.51260346e-03 9.99900003e-05
      2.49993755e-05 1.56183496e-01 7.49943720e-05 2.49993755e-05
      1.24998442e-05 3.51260346e-03 9.99900003e-05 2.49993755e-05
      1.56183496e-01 7.49943720e-05 2.49993755e-05 1.24998442e-05
      3.60148493e-03 8.97801772e-04 3.52763981e-02 1.56191215e-01
      3.53073403e-02 4.47381462e-05 2.09601858e-05 3.59684392e-03
      8.56441446e-04 3.34491730e-02 1.56190440e-01 3.34809124e-02
      4.37150047e-05 2.05216620e-05 3.59319639e-03 8.23929848e-04
      3.20128649e-02 1.56189829e-01 3.20452340e-02 4.29107531e-05
      2.01769562e-05 3.59084457e-03 8.02962692e-04 3.10865659e-02
      1.56189442e-01 3.11193466e-02 4.23920792e-05 1.99546503e-05
      3.65267950e-03 8.45934264e-03 4.96257618e-02 1.56195045e-01
      4.96188737e-02 7.41804251e-03 5.50387558e-05 3.65055632e-03
      8.20416119e-03 4.89841886e-02 1.56194687e-01 4.89799790e-02
      7.17415288e-03 5.38723179e-05 3.64946318e-03 8.07410944e-03
      4.86527048e-02 1.56194508e-01 4.86498475e-02 7.04994472e-03
      5.32771410e-05 3.64890834e-03 8.00847076e-03 4.84842099e-02
      1.56194419e-01 4.84820344e-02 6.98727928e-03 5.29765639e-05
      4.85633500e-03 1.35907205e-02 5.57100326e-02 1.56128496e-01
      5.56387417e-02 1.24611882e-02 1.35487283e-03 4.84977802e-03
      1.35542583e-02 5.56488559e-02 1.56128556e-01 5.55780269e-02
      1.24257421e-02 1.34813495e-03 4.84650303e-03 1.35360155e-02
      5.56182116e-02 1.56128585e-01 5.55476137e-02 1.24080079e-02
      1.34476938e-03 4.84486623e-03 1.35268914e-02 5.56028783e-02
      1.56128615e-01 5.55323921e-02 1.23991380e-02 1.34308741e-03
      2.81206262e-03 7.99936024e-05 1.99995993e-05 1.29442692e-01
      5.99964005e-05 1.99995993e-05 9.99989970e-06 2.81206262e-03
      7.99936024e-05 1.99995993e-05 1.29442692e-01 5.99964005e-05
      1.99995993e-05 9.99989970e-06 2.81206262e-03 7.99936024e-05
      1.99995993e-05 1.29442692e-01 5.99964005e-05 1.99995993e-05
      9.99989970e-06 2.81206262e-03 7.99936024e-05 1.99995993e-05
      1.29442692e-01 5.99964005e-05 1.99995993e-05 9.99989970e-06
      2.87259603e-03 6.22652704e-04 2.48420145e-02 1.29448965e-01
      2.48689540e-02 3.34157594e-05 1.57501763e-05 2.87259580e-03
      6.22651365e-04 2.48419531e-02 1.29448965e-01 2.48688925e-02
      3.34157266e-05 1.57501618e-05 2.87259580e-03 6.22650667e-04
      2.48419214e-02 1.29448965e-01 2.48688627e-02 3.34157121e-05
      1.57501545e-05 2.87259580e-03 6.22650317e-04 2.48419065e-02
      1.29448965e-01 2.48688459e-02 3.34157012e-05 1.57501509e-05
      2.92099710e-03 6.57166215e-03 4.00597267e-02 1.29454866e-01
      4.00409773e-02 5.73803578e-03 4.21438272e-05 2.92099710e-03
      6.57165889e-03 4.00597155e-02 1.29454866e-01 4.00409661e-02
      5.73803298e-03 4.21438126e-05 2.92099710e-03 6.57165702e-03
      4.00597118e-02 1.29454866e-01 4.00409624e-02 5.73803112e-03
      4.21438053e-05 2.92099710e-03 6.57165609e-03 4.00597118e-02
      1.29454866e-01 4.00409624e-02 5.73803019e-03 4.21438017e-05
      3.92858032e-03 1.11981565e-02 4.60949130e-02 1.29416421e-01
      4.60127369e-02 1.02690607e-02 1.11055048e-03 3.92857986e-03
      1.11981565e-02 4.60949130e-02 1.29416421e-01 4.60127369e-02
      1.02690598e-02 1.11055037e-03 3.92857986e-03 1.11981556e-02
      4.60949130e-02 1.29416421e-01 4.60127369e-02 1.02690598e-02
      1.11055037e-03 3.92857986e-03 1.11981556e-02 4.60949130e-02
      1.29416421e-01 4.60127369e-02 1.02690598e-02 1.11055037e-03
      2.34448607e-03 6.66622218e-05 1.66663885e-05 1.10469788e-01
      4.99974994e-05 1.66663885e-05 8.33326430e-06 2.34448607e-03
      6.66622218e-05 1.66663885e-05 1.10469788e-01 4.99974994e-05
      1.66663885e-05 8.33326430e-06 2.34448607e-03 6.66622218e-05
      1.66663885e-05 1.10469788e-01 4.99974994e-05 1.66663885e-05
      8.33326430e-06 2.34448607e-03 6.66622218e-05 1.66663885e-05
      1.10469788e-01 4.99974994e-05 1.66663885e-05 8.33326430e-06
      2.39504245e-03 5.19117340e-04 2.12008972e-02 1.10476114e-01
      2.12235376e-02 2.78467687e-05 1.31251973e-05 2.39504245e-03
      5.19117340e-04 2.12008972e-02 1.10476114e-01 2.12235376e-02
      2.78467687e-05 1.31251973e-05 2.39504245e-03 5.19117340e-04
      2.12008972e-02 1.10476114e-01 2.12235376e-02 2.78467687e-05
      1.31251973e-05 2.39504245e-03 5.19117340e-04 2.12008972e-02
      1.10476114e-01 2.12235376e-02 2.78467687e-05 1.31251973e-05
      2.43545324e-03 5.60257072e-03 3.41982469e-02 1.10482000e-01
      3.41722332e-02 4.89661144e-03 3.51223898e-05 2.43545324e-03
      5.60257072e-03 3.41982469e-02 1.10482000e-01 3.41722332e-02
      4.89661144e-03 3.51223898e-05 2.43545324e-03 5.60257072e-03
      3.41982469e-02 1.10482000e-01 3.41722332e-02 4.89661144e-03
      3.51223898e-05 2.43545324e-03 5.60257072e-03 3.41982469e-02
      1.10482000e-01 3.41722332e-02 4.89661144e-03 3.51223898e-05
      3.30520398e-03 9.55426786e-03 3.93528044e-02 1.10458322e-01
      3.92690040e-02 8.76400620e-03 9.47120076e-04 3.30520398e-03
      9.55426786e-03 3.93528044e-02 1.10458322e-01 3.92690040e-02
      8.76400620e-03 9.47120076e-04 3.30520398e-03 9.55426786e-03
      3.93528044e-02 1.10458322e-01 3.92690040e-02 8.76400620e-03
      9.47120076e-04 3.30520398e-03 9.55426786e-03 3.93528044e-02
      1.10458322e-01 3.92690040e-02 8.76400620e-03 9.47120076e-04
      2.01023370e-03 5.71395904e-05 1.42855106e-05 9.63258073e-02
      4.28553067e-05 1.42855106e-05 7.14280623e-06 2.01023370e-03
      5.71395904e-05 1.42855106e-05 9.63258073e-02 4.28553067e-05
      1.42855106e-05 7.14280623e-06 2.01023370e-03 5.71395904e-05
      1.42855106e-05 9.63258073e-02 4.28553067e-05 1.42855106e-05
      7.14280623e-06 2.01023370e-03 5.71395904e-05 1.42855106e-05
      9.63258073e-02 4.28553067e-05 1.42855106e-05 7.14280623e-06
      2.05363636e-03 4.45106212e-04 1.84865613e-02 9.63319391e-02
      1.85060892e-02 2.38688772e-05 1.12502148e-05 2.05363636e-03
      4.45106212e-04 1.84865613e-02 9.63319391e-02 1.85060892e-02
      2.38688772e-05 1.12502148e-05 2.05363636e-03 4.45106212e-04
      1.84865613e-02 9.63319391e-02 1.85060892e-02 2.38688772e-05
      1.12502148e-05 2.05363636e-03 4.45106212e-04 1.84865613e-02
      9.63319391e-02 1.85060892e-02 2.38688772e-05 1.12502148e-05
      2.08832114e-03 4.88175545e-03 2.98260935e-02 9.63375941e-02
      2.97971498e-02 4.26944904e-03 3.01064738e-05 2.08832114e-03
      4.88175545e-03 2.98260935e-02 9.63375941e-02 2.97971498e-02
      4.26944904e-03 3.01064738e-05 2.08832114e-03 4.88175545e-03
      2.98260935e-02 9.63375941e-02 2.97971498e-02 4.26944904e-03
      3.01064738e-05 2.08832114e-03 4.88175545e-03 2.98260935e-02
      9.63375941e-02 2.97971498e-02 4.26944904e-03 3.01064738e-05
      2.85285898e-03 8.32959078e-03 3.43231708e-02 9.63226557e-02
      3.42415459e-02 7.64199160e-03 8.25459254e-04 2.85285898e-03
      8.32959078e-03 3.43231708e-02 9.63226557e-02 3.42415459e-02
      7.64199160e-03 8.25459254e-04 2.85285898e-03 8.32959078e-03
      3.43231708e-02 9.63226557e-02 3.42415459e-02 7.64199160e-03
      8.25459254e-04 2.85285898e-03 8.32959078e-03 3.43231708e-02
      9.63226557e-02 3.42415459e-02 7.64199160e-03 8.25459254e-04
      1.75939722e-03 4.99974994e-05 1.24998442e-05 8.53817984e-02
      3.74985939e-05 1.24998442e-05 6.24996073e-06 1.75939722e-03
      4.99974994e-05 1.24998442e-05 8.53817984e-02 3.74985939e-05
      1.24998442e-05 6.24996073e-06 1.75939722e-03 4.99974994e-05
      1.24998442e-05 8.53817984e-02 3.74985939e-05 1.24998442e-05
      6.24996073e-06 1.75939722e-03 4.99974994e-05 1.24998442e-05
      8.53817984e-02 3.74985939e-05 1.24998442e-05 6.24996073e-06
      1.79741939e-03 3.89565423e-04 1.63863003e-02 8.53876472e-02
      1.64034683e-02 2.08854108e-05 9.84396775e-06 1.79741939e-03
      3.89565423e-04 1.63863003e-02 8.53876472e-02 1.64034683e-02
      2.08854108e-05 9.84396775e-06 1.79741939e-03 3.89565423e-04
      1.63863003e-02 8.53876472e-02 1.64034683e-02 2.08854108e-05
      9.84396775e-06 1.79741939e-03 3.89565423e-04 1.63863003e-02
      8.53876472e-02 1.64034683e-02 2.08854108e-05 9.84396775e-06
      1.82779960e-03 4.32487112e-03 2.64416970e-02 8.53930116e-02
      2.64118686e-02 3.78423091e-03 2.63441925e-05 1.82779960e-03
      4.32487112e-03 2.64416970e-02 8.53930116e-02 2.64118686e-02
      3.78423091e-03 2.63441925e-05 1.82779960e-03 4.32487112e-03
      2.64416970e-02 8.53930116e-02 2.64118686e-02 3.78423091e-03
      2.63441925e-05 1.82779960e-03 4.32487112e-03 2.64416970e-02
      8.53930116e-02 2.64118686e-02 3.78423091e-03 2.63441925e-05
      2.50956439e-03 7.38238543e-03 3.04294992e-02 8.53835568e-02
      3.03514451e-02 6.77381037e-03 7.31416454e-04 2.50956439e-03
      7.38238543e-03 3.04294992e-02 8.53835568e-02 3.03514451e-02
      6.77381037e-03 7.31416454e-04 2.50956439e-03 7.38238543e-03
      3.04294992e-02 8.53835568e-02 3.03514451e-02 6.77381037e-03
      7.31416454e-04 2.50956439e-03 7.38238543e-03 3.04294992e-02
      8.53835568e-02 3.03514451e-02 6.77381037e-03 7.31416454e-04
      1.56421482e-03 4.44424695e-05 1.11109875e-05 7.66650736e-02
      3.33322205e-05 1.11109875e-05 5.55552469e-06 1.56421482e-03
      4.44424695e-05 1.11109875e-05 7.66650736e-02 3.33322205e-05
      1.11109875e-05 5.55552469e-06 1.56421482e-03 4.44424695e-05
      1.11109875e-05 7.66650736e-02 3.33322205e-05 1.11109875e-05
      5.55552469e-06 1.56421482e-03 4.44424695e-05 1.11109875e-05
      7.66650736e-02 3.33322205e-05 1.11109875e-05 5.55552469e-06
      1.59804337e-03 3.46347777e-04 1.47134606e-02 7.66706094e-02
      1.47287808e-02 1.85649078e-05 8.75021396e-06 1.59804337e-03
      3.46347777e-04 1.47134606e-02 7.66706094e-02 1.47287808e-02
      1.85649078e-05 8.75021396e-06 1.59804337e-03 3.46347777e-04
      1.47134606e-02 7.66706094e-02 1.47287808e-02 1.85649078e-05
      8.75021396e-06 1.59804337e-03 3.46347777e-04 1.47134606e-02
      7.66706094e-02 1.47287808e-02 1.85649078e-05 8.75021396e-06
      1.62506930e-03 3.88181093e-03 2.37452295e-02 7.66756758e-02
      2.37155277e-02 3.39779374e-03 2.34177714e-05 1.62506930e-03
      3.88181093e-03 2.37452295e-02 7.66756758e-02 2.37155277e-02
      3.39779374e-03 2.34177714e-05 1.62506930e-03 3.88181093e-03
      2.37452295e-02 7.66756758e-02 2.37155277e-02 3.39779374e-03
      2.34177714e-05 1.62506930e-03 3.88181093e-03 2.37452295e-02
      7.66756758e-02 2.37155277e-02 3.39779374e-03 2.34177714e-05
      2.24009040e-03 6.62816688e-03 2.73270793e-02 7.66698346e-02
      2.72529963e-02 6.08230801e-03 6.56567223e-04 2.24009040e-03
      6.62816688e-03 2.73270793e-02 7.66698346e-02 2.72529963e-02
      6.08230801e-03 6.56567223e-04 2.24009040e-03 6.62816688e-03
      2.73270793e-02 7.66698346e-02 2.72529963e-02 6.08230801e-03
      6.56567223e-04 2.24009040e-03 6.62816688e-03 2.73270793e-02
      7.66698346e-02 2.72529963e-02 6.08230801e-03 6.56567223e-04
      1.40801375e-03 3.99983983e-05 9.99989970e-06 6.95599318e-02
      2.99991007e-05 9.99989970e-06 4.99997486e-06 1.40801375e-03
      3.99983983e-05 9.99989970e-06 6.95599318e-02 2.99991007e-05
      9.99989970e-06 4.99997486e-06 1.40801375e-03 3.99983983e-05
      9.99989970e-06 6.95599318e-02 2.99991007e-05 9.99989970e-06
      4.99997486e-06 1.40801375e-03 3.99983983e-05 9.99989970e-06
      6.95599318e-02 2.99991007e-05 9.99989970e-06 4.99997486e-06
      1.43848197e-03 3.11761542e-04 1.33498935e-02 6.95651621e-02
      1.33637246e-02 1.67084891e-05 7.87520730e-06 1.43848197e-03
      3.11761542e-04 1.33498935e-02 6.95651621e-02 1.33637246e-02
      1.67084891e-05 7.87520730e-06 1.43848197e-03 3.11761542e-04
      1.33498935e-02 6.95651621e-02 1.33637246e-02 1.67084891e-05
      7.87520730e-06 1.43848197e-03 3.11761542e-04 1.33498935e-02
      6.95651621e-02 1.33637246e-02 1.67084891e-05 7.87520730e-06
      1.46282057e-03 3.52096674e-03 2.15467568e-02 6.95699379e-02
      2.15176865e-02 3.08282208e-03 2.10765065e-05 1.46282057e-03
      3.52096674e-03 2.15467568e-02 6.95699379e-02 2.15176865e-02
      3.08282208e-03 2.10765065e-05 1.46282057e-03 3.52096674e-03
      2.15467568e-02 6.95699379e-02 2.15176865e-02 3.08282208e-03
      2.10765065e-05 1.46282057e-03 3.52096674e-03 2.15467568e-02
      6.95699379e-02 2.15176865e-02 3.08282208e-03 2.10765065e-05
      2.02291925e-03 6.01351634e-03 2.47974973e-02 6.95665702e-02
      2.47273743e-02 5.51864691e-03 5.95590333e-04 2.02291925e-03
      6.01351634e-03 2.47974973e-02 6.95665702e-02 2.47273743e-02
      5.51864691e-03 5.95590333e-04 2.02291925e-03 6.01351634e-03
      2.47974973e-02 6.95665702e-02 2.47273743e-02 5.51864691e-03
      5.95590333e-04 2.02291925e-03 6.01351634e-03 2.47974973e-02
      6.95665702e-02 2.47273743e-02 5.51864691e-03 5.95590333e-04</_>
    <_>
      2.49937497e-04 1.49977495e-04 4.99923557e-01 1.60861656e-01
      8.71401876e-02 7.49437779e-04 1.95914745e-01 2.49937497e-04
      1.49977495e-04 4.99923557e-01 1.60861656e-01 8.71401876e-02
      7.49437779e-04 1.95914745e-01 2.49937497e-04 1.49977495e-04
      4.99923557e-01 1.60861656e-01 8.71401876e-02 7.49437779e-04
      1.95914745e-01 2.49937497e-04 1.49977495e-04 4.99923557e-01
      1.60861656e-01 8.71401876e-02 7.49437779e-04 1.95914745e-01
      1.24244116e-01 1.25055879e-01 4.59682971e-01 1.98417515e-01
      1.13410369e-01 6.27778098e-02 1.95960671e-01 1.24244116e-01
      1.25055879e-01 4.59682971e-01 1.98417515e-01 1.13410369e-01
      6.27778098e-02 1.95960671e-01 1.24244116e-01 1.25055879e-01
      4.59682971e-01 1.98417515e-01 1.13410369e-01 6.27778098e-02
      1.95960671e-01 1.24244116e-01 1.25055879e-01 4.59682971e-01
      1.98417515e-01 1.13410369e-01 6.27778098e-02 1.95960671e-01
      1.65909007e-01 1.49204239e-01 4.47857618e-01 2.69477159e-01
      1.26734167e-01 1.11143447e-01 1.94355324e-01 1.65909007e-01
      1.49204239e-01 4.47857618e-01 2.69477159e-01 1.26734167e-01
      1.11143447e-01 1.94355324e-01 1.65909007e-01 1.49204239e-01
      4.47857618e-01 2.69477159e-01 1.26734167e-01 1.11143447e-01
      1.94355324e-01 1.65909007e-01 1.49204239e-01 4.47857618e-01
      2.69477159e-01 1.26734167e-01 1.11143447e-01 1.94355324e-01
      1.45793557e-01 1.89928964e-01 3.58267069e-01 2.88305044e-01
      1.76702127e-01 1.29997358e-01 1.94343194e-01 1.45793557e-01
      1.89928964e-01 3.58267069e-01 2.88305044e-01 1.76702127e-01
      1.29997358e-01 1.94343194e-01 1.45793557e-01 1.89928964e-01
      3.58267069e-01 2.88305044e-01 1.76702127e-01 1.29997358e-01
      1.94343194e-01 1.45793557e-01 1.89928964e-01 3.58267069e-01
      2.88305044e-01 1.76702127e-01 1.29997358e-01 1.94343194e-01
      1.24984377e-04 7.49943720e-05 4.93818223e-01 8.82122293e-02
      4.56544198e-02 3.74859403e-04 1.10073566e-01 1.24984377e-04
      7.49943720e-05 4.93818223e-01 8.82122293e-02 4.56544198e-02
      3.74859403e-04 1.10073566e-01 1.24984377e-04 7.49943720e-05
      4.93818223e-01 8.82122293e-02 4.56544198e-02 3.74859403e-04
      1.10073566e-01 1.24984377e-04 7.49943720e-05 4.93818223e-01
      8.82122293e-02 4.56544198e-02 3.74859403e-04 1.10073566e-01
      1.14569433e-01 1.23492897e-01 4.72292125e-01 1.66208550e-01
      6.37417734e-02 3.67376916e-02 1.10133007e-01 1.14569433e-01
      1.23492897e-01 4.72292125e-01 1.66208550e-01 6.37417734e-02
      3.67376916e-02 1.10133007e-01 1.14569433e-01 1.23492897e-01
      4.72292125e-01 1.66208550e-01 6.37417734e-02 3.67376916e-02
      1.10133007e-01 1.14569433e-01 1.23492897e-01 4.72292125e-01
      1.66208550e-01 6.37417734e-02 3.67376916e-02 1.10133007e-01
      1.57921180e-01 1.60192251e-01 4.65803593e-01 2.47966871e-01
      9.85885039e-02 6.91203773e-02 1.11917362e-01 1.57921180e-01
      1.60192251e-01 4.65803593e-01 2.47966871e-01 9.85885039e-02
      6.91203773e-02 1.11917362e-01 1.57921180e-01 1.60192251e-01
      4.65803593e-01 2.47966871e-01 9.85885039e-02 6.91203773e-02
      1.11917362e-01 1.57921180e-01 1.60192251e-01 4.65803593e-01
      2.47966871e-01 9.85885039e-02 6.91203773e-02 1.11917362e-01
      1.47164926e-01 2.06608325e-01 3.83134484e-01 2.84652054e-01
      1.57017425e-01 9.23240408e-02 1.16708353e-01 1.47164926e-01
      2.06608325e-01 3.83134484e-01 2.84652054e-01 1.57017425e-01
      9.23240408e-02 1.16708353e-01 1.47164926e-01 2.06608325e-01
      3.83134484e-01 2.84652054e-01 1.57017425e-01 9.23240408e-02
      1.16708353e-01 1.47164926e-01 2.06608325e-01 3.83134484e-01
      2.84652054e-01 1.57017425e-01 9.23240408e-02 1.16708353e-01
      8.33263912e-05 4.99974994e-05 4.73265857e-01 6.06887750e-02
      3.09193265e-02 2.49937497e-04 7.63780475e-02 8.33263912e-05
      4.99974994e-05 4.73265857e-01 6.06887750e-02 3.09193265e-02
      2.49937497e-04 7.63780475e-02 8.33263912e-05 4.99974994e-05
      4.73265857e-01 6.06887750e-02 3.09193265e-02 2.49937497e-04
      7.63780475e-02 8.33263912e-05 4.99974994e-05 4.73265857e-01
      6.06887750e-02 3.09193265e-02 2.49937497e-04 7.63780475e-02
      1.01076998e-01 1.18343912e-01 4.59704876e-01 1.49708226e-01
      4.42627072e-02 2.58672759e-02 7.64272287e-02 1.01076998e-01
      1.18343912e-01 4.59704876e-01 1.49708226e-01 4.42627072e-02
      2.58672759e-02 7.64272287e-02 1.01076998e-01 1.18343912e-01
      4.59704876e-01 1.49708226e-01 4.42627072e-02 2.58672759e-02
      7.64272287e-02 1.01076998e-01 1.18343912e-01 4.59704876e-01
      1.49708226e-01 4.42627072e-02 2.58672740e-02 7.64272287e-02
      1.47204697e-01 1.63942859e-01 4.55946267e-01 2.32511252e-01
      8.50381255e-02 4.97735702e-02 7.83340707e-02 1.47204667e-01
      1.63942829e-01 4.55946267e-01 2.32511222e-01 8.50381032e-02
      4.97735627e-02 7.83340707e-02 1.47204548e-01 1.63942710e-01
      4.55946267e-01 2.32511088e-01 8.50380138e-02 4.97735217e-02
      7.83340633e-02 1.47204101e-01 1.63942233e-01 4.55946267e-01
      2.32510537e-01 8.50376710e-02 4.97733578e-02 7.83340484e-02
      1.46265998e-01 2.13268682e-01 3.86724204e-01 2.74423748e-01
      1.44759357e-01 7.47595727e-02 8.30148757e-02 1.46257102e-01
      2.13254616e-01 3.86728764e-01 2.74411112e-01 1.44744754e-01
      7.47516230e-02 8.30134675e-02 1.46222636e-01 2.13200063e-01
      3.86746466e-01 2.74362117e-01 1.44688115e-01 7.47207925e-02
      8.30080137e-02 1.46092966e-01 2.12994769e-01 3.86813164e-01
      2.74177760e-01 1.44475102e-01 7.46048763e-02 8.29875022e-02
      6.24960958e-05 3.74985939e-05 4.44404185e-01 4.62446846e-02
      2.33735312e-02 1.87464844e-04 5.84536046e-02 6.24960958e-05
      3.74985939e-05 4.44404185e-01 4.62446846e-02 2.33735312e-02
      1.87464844e-04 5.84536046e-02 6.24960958e-05 3.74985939e-05
      4.44404185e-01 4.62446846e-02 2.33735312e-02 1.87464844e-04
      5.84536046e-02 6.24960958e-05 3.74985939e-05 4.44404185e-01
      4.62446846e-02 2.33735312e-02 1.87464844e-04 5.84536046e-02
      8.01619664e-02 1.00293905e-01 4.35306937e-01 1.26984462e-01
      3.28152329e-02 1.80191956e-02 5.84897436e-02 7.60097578e-02
      9.50970650e-02 4.35278803e-01 1.22274101e-01 3.22994925e-02
      1.70945786e-02 5.84875681e-02 7.27458745e-02 9.10120457e-02
      4.35266614e-01 1.18581906e-01 3.18946131e-02 1.63677800e-02
      5.84858656e-02 7.06409514e-02 8.83775502e-02 4.35263693e-01
      1.16205946e-01 3.16337608e-02 1.58990603e-02 5.84847704e-02
      9.50384811e-02 1.16130903e-01 4.32651162e-01 1.64286897e-01
      4.81169447e-02 2.65486650e-02 5.90156503e-02 9.37822685e-02
      1.14697851e-01 4.32649702e-01 1.62608370e-01 4.74296175e-02
      2.61737332e-02 5.89883178e-02 9.31351185e-02 1.13958366e-01
      4.32649523e-01 1.61741436e-01 4.70792614e-02 2.59804614e-02
      5.89744560e-02 9.28066671e-02 1.13582715e-01 4.32649583e-01
      1.61300853e-01 4.69024181e-02 2.58823354e-02 5.89674786e-02
      9.18255299e-02 1.28832683e-01 4.06562090e-01 1.77584141e-01
      6.10918216e-02 2.98927091e-02 5.94573282e-02 9.17393342e-02
      1.28690720e-01 4.06619966e-01 1.77430525e-01 6.09947406e-02
      2.98501309e-02 5.94525263e-02 9.16961655e-02 1.28619626e-01
      4.06648964e-01 1.77353591e-01 6.09461665e-02 2.98288260e-02
      5.94501272e-02 9.16745588e-02 1.28584057e-01 4.06663448e-01
      1.77315071e-01 6.09218739e-02 2.98181679e-02 5.94489276e-02
      4.99974994e-05 2.99991007e-05 4.13736373e-01 3.73512618e-02
